
//<![CDATA[

// a few things don't have var in front of them - they update already existing variables the game needs
lanesSide = 4;
patchesAhead = 10;
patchesBehind = 8;
trainIterations = 30000;

var num_inputs = (lanesSide * 2 + 1) * (patchesAhead + patchesBehind);
var num_actions = 5;
var temporal_window = 3;
var network_size = num_inputs * temporal_window + num_actions * temporal_window + num_inputs;

var layer_defs = [];
layer_defs.push({
    type: 'input',
    out_sx: 1,
    out_sy: 1,
    out_depth: network_size
});
layer_defs.push({
    type: 'fc',
    num_neurons: 10,
    activation: 'relu'
});
layer_defs.push({
    type: 'regression',
    num_neurons: num_actions
});

var tdtrainer_options = {
    learning_rate: 0.001,
    momentum: 0.0,
    batch_size: 64,
    l2_decay: 0.01
};

var opt = {};
opt.temporal_window = temporal_window;
opt.experience_size = 3000;
opt.start_learn_threshold = 500;
opt.gamma = 0.7;
opt.learning_steps_total = 10000;
opt.learning_steps_burnin = 1000;
opt.epsilon_min = 0.0;
opt.epsilon_test_time = 0.0;
opt.layer_defs = layer_defs;
opt.tdtrainer_options = tdtrainer_options;

brain = new deepqlearn.Brain(num_inputs, num_actions, opt);

learn = function (state, lastReward) {
    brain.backward(lastReward);
    var action = brain.forward(state);

    draw_net();
    draw_stats();

    return action;
}

//]]>
    
/*###########*/
if (brain) {
brain.value_net.fromJSON({"layers":[{"out_depth":663,"out_sx":1,"out_sy":1,"layer_type":"input"},{"out_depth":10,"out_sx":1,"out_sy":1,"layer_type":"fc","num_inputs":663,"l1_decay_mul":0,"l2_decay_mul":1,"filters":[{"sx":1,"sy":1,"depth":663,"w":{"0":-0.005444159849834843,"1":0.053482939546782356,"2":-0.024872833652266873,"3":-0.01016701093074022,"4":0.020491655107084283,"5":0.010378392607574618,"6":0.0073528768149825575,"7":0.02298875101460805,"8":0.0034444540555398904,"9":0.00199112529937909,"10":-0.021087995721188354,"11":0.015842385629895907,"12":-0.031423616391446973,"13":-0.055714477184277814,"14":0.038059826119550555,"15":-0.014245844123543558,"16":0.04163890928825887,"17":0.06662616341118631,"18":0.1050543846233298,"19":0.04962492496600317,"20":0.04584634926154141,"21":0.010607668379520025,"22":0.0014070996102590405,"23":0.07206338734263688,"24":0.009649271942229962,"25":0.012219477994387745,"26":0.018864386053781868,"27":0.014204587165805162,"28":0.008816654150412565,"29":0.032437656882278065,"30":0.005301725916783002,"31":-0.0015015262044541608,"32":-0.041298684441741576,"33":-0.053560970638792275,"34":-0.014079961799647196,"35":-0.009414873971863672,"36":0.016147889617420395,"37":-0.003628524177951564,"38":0.026209899201814647,"39":0.028052673475936412,"40":0.0042881994441343425,"41":0.037940726154269445,"42":-0.005601174343435759,"43":-0.033525037389354057,"44":0.005776191613844462,"45":-0.03596529150716806,"46":-0.07402519454641822,"47":0.003780141470212221,"48":0.029646924746161946,"49":0.045675881275225816,"50":-0.018586231442207352,"51":-0.09016923116016222,"52":-0.03334467014998237,"53":0.022497517215636798,"54":0.06342237811778142,"55":-0.021928628292847266,"56":0.017157899239808434,"57":-0.011300043961957022,"58":-0.020063438193820973,"59":0.02520134085284947,"60":-0.03737393241041973,"61":-0.05328626474846605,"62":-0.005549042644663906,"63":0.03768171449414194,"64":-0.0019426952339180264,"65":-0.09708791895173072,"66":-0.09253956898616353,"67":0.025217933611337524,"68":0.06918124290250367,"69":-0.0019206035928458459,"70":-0.04781732846716694,"71":-0.0012671615843483034,"72":-0.02529224613265603,"73":0.028528843771215364,"74":-0.03542065160052967,"75":-0.029768344991196728,"76":0.014640202601053172,"77":-0.07779634477043254,"78":-0.00819270101313328,"79":0.014975060424451663,"80":0.004815023840491825,"81":0.0588623423124141,"82":0.06350500452048564,"83":0.017381233190108588,"84":0.03219271930171549,"85":-0.06161535361603477,"86":0.006317766754622159,"87":-0.008081278431204916,"88":-0.016418870947306978,"89":0.03273165022139556,"90":0.019193070030033663,"91":-0.06609567375603184,"92":-0.007746070074974044,"93":-0.023724900322106456,"94":0.013777439674859749,"95":0.04047682070178093,"96":-0.0007862411110034564,"97":-0.008176271434445628,"98":0.0004317674724432262,"99":-0.020068746616169926,"100":0.005676287507112288,"101":-0.02491842334220094,"102":-0.03175186709859175,"103":-0.022838720695995345,"104":-0.021730770986800922,"105":-0.0313489824169459,"106":-0.0470458955791386,"107":-0.05637128001662479,"108":0.050436124528579346,"109":-0.07724258984934296,"110":-0.010505744732251887,"111":0.06284950640170499,"112":0.0031799485250596214,"113":-0.0650675064823948,"114":-0.012058105585345038,"115":-0.028524620690050944,"116":-0.021792222298647024,"117":-0.016296908095878335,"118":0.04973310302114529,"119":-0.030617046204264867,"120":0.014277093480957445,"121":-0.023428934965773068,"122":0.001316959907687038,"123":0.01170009836489245,"124":0.020308917188969246,"125":-0.008892988271942638,"126":0.012552362586692034,"127":-0.04489940781994969,"128":-0.0009743163820409773,"129":-0.01359040704389865,"130":-0.022580045012455505,"131":-0.05445122811743552,"132":0.03994972118279987,"133":0.025580749781639114,"134":-0.002173339626198106,"135":0.0328681766396953,"136":0.04754653292153911,"137":0.006690017774587594,"138":0.04469561118230293,"139":0.03227057151096876,"140":0.01983515562933043,"141":-0.007796685770746644,"142":-0.0035507854534638406,"143":0.07397853031959377,"144":-0.014669273218778435,"145":0.07661406682487389,"146":-0.02691486243201837,"147":-0.018455804821196034,"148":-0.013884181143971617,"149":-0.06762384635508073,"150":0.05134047572683513,"151":-0.09519617282918626,"152":0.08446771903457308,"153":0.052156303818134214,"154":0.025499706492771446,"155":0.0053551006161242035,"156":-0.025897148489460012,"157":-0.025219412499014226,"158":-0.07915537615833641,"159":-0.004432569512060813,"160":0.016334386658538497,"161":0.055853837572732205,"162":0.03744131294298686,"163":-0.026028854961002386,"164":-0.02689511315117625,"165":-0.05776140366520639,"166":0.025160887214468193,"167":-0.012519430327906467,"168":0.047961532377054264,"169":0.0376222907812972,"170":-0.04035133986494576,"171":0.03952688557929118,"172":-0.026721243486553727,"173":-0.014983892551246625,"174":-0.05880541190107253,"175":-0.033227334225566695,"176":-0.04960341728486781,"177":0.03060793137255704,"178":-0.015553577903848632,"179":0.008965953824940729,"180":0.08806033816975173,"181":0.09893095798951802,"182":0.0355532964386931,"183":-0.004377114950960488,"184":-0.012337714869495763,"185":0.002929873109116792,"186":0.041306343239277295,"187":-0.05940668988093612,"188":0.023079455101946596,"189":0.014067915653495994,"190":0.003913056648315784,"191":0.0029324376650938524,"192":0.004579307299180463,"193":-0.026366403970465697,"194":0.010509442117486731,"195":-0.04100442598647275,"196":-0.03965294846873299,"197":-0.010000450734891721,"198":-0.028089173973614486,"199":-0.018264121587463635,"200":0.05165097468922816,"201":0.014250222242604525,"202":-0.0007412533448356572,"203":0.023684189594475248,"204":0.029535262440256983,"205":-0.06629355665695921,"206":0.004376410763458704,"207":0.005261338557937079,"208":-0.06885919916037643,"209":-0.0025568199904848813,"210":-0.03520865236551039,"211":-0.02980221703374427,"212":0.008840959472797547,"213":-0.07891058963679176,"214":-0.014380697660575738,"215":-0.09167192756667268,"216":-0.028466621222683303,"217":-0.032183347483135796,"218":-0.03254100509377949,"219":-0.03379838206115868,"220":0.048416212362876625,"221":0.0317261006705736,"222":-0.008670559074074005,"223":0.033676905165174076,"224":0.028023746146201785,"225":-0.008795629407489432,"226":0.08407194109036481,"227":0.024972067895904098,"228":0.016308753012905252,"229":0.021869132589159224,"230":0.011913277459387136,"231":0.003556102215298167,"232":0.0021507079079013214,"233":-0.03989237944827961,"234":0.02031900341162241,"235":-0.003453080286272016,"236":-0.015015552654193328,"237":0.002008837312587227,"238":0.033923381913653496,"239":-0.07526235600488872,"240":-0.02267831119283187,"241":-0.00019024997522608674,"242":-0.06194170822199116,"243":0.0310983069690943,"244":-0.003429080207163434,"245":-0.03668025192645341,"246":0.06036305630916029,"247":0.028772607777172582,"248":0.00891616998653765,"249":0.009379435645754906,"250":0.013524029056932885,"251":0.018837362444832157,"252":-0.031804486350873025,"253":-0.02226982520438381,"254":0.004350216500255306,"255":0.020385619130119083,"256":-0.030166206081781194,"257":-0.004208054650644501,"258":0.00815166703884702,"259":0.08584168784129537,"260":-0.05669533353143077,"261":-0.0543308291446891,"262":-0.06337531942401733,"263":0.0018518634708467262,"264":-0.005443878740252284,"265":0.004329324475287561,"266":0.0038761988586972556,"267":-0.05124696784988245,"268":-0.017786490082427032,"269":-0.07262932197774463,"270":0.041641317211983955,"271":0.030352579870631433,"272":0.017158999065868867,"273":0.07644893438092956,"274":0.003480310329265868,"275":-0.010217359421545745,"276":-0.0016950840642401418,"277":0.0021280251539753975,"278":0.06616892134359188,"279":-0.021434591104538426,"280":-0.09610359298419886,"281":0.023116693759294007,"282":-0.02136982358420022,"283":-0.021947526919705494,"284":-0.04870276394331733,"285":-0.06157126512005318,"286":0.09493041477483413,"287":-0.021276046490759665,"288":0.028799620942216546,"289":0.010330045864993972,"290":0.08307677007341902,"291":0.04082488701379819,"292":0.002164271480595293,"293":-0.013547120990554022,"294":0.008679806204238805,"295":0.11436895255091704,"296":-0.03966324346977869,"297":-0.009371587146308511,"298":-0.026222540536804808,"299":-0.018931591839694197,"300":0.038858039396381786,"301":0.07334979639698694,"302":-0.04011918872378767,"303":0.05764581907797635,"304":0.06857025455433287,"305":0.022919787028628003,"306":-0.006330047234009653,"307":0.03926851213234764,"308":0.032112228105474386,"309":0.0209434317449027,"310":-0.05231864601887834,"311":-0.02577326890656409,"312":-0.030164120415919534,"313":0.02453450373352832,"314":0.034193305072686954,"315":0.006767339257346469,"316":0.02305632169670652,"317":-0.04349062804095443,"318":-0.0712230001690435,"319":-0.0036634288571474106,"320":0.010829704055791532,"321":0.015947368264253654,"322":-0.011181009607217128,"323":-0.007351713713039114,"324":0.00800653267855837,"325":-0.02085029862468281,"326":-0.0327135790081429,"327":0.0021573415761865253,"328":0.02336961210712151,"329":-0.01832215958828163,"330":0.012852079650364489,"331":0.019962850252736433,"332":0.011968034007224881,"333":-0.05011076296443947,"334":-0.04412829348484948,"335":0.01570094202977,"336":-0.008120015039511512,"337":0.027676757925827793,"338":-0.03262148442167717,"339":-0.003555629969562795,"340":-0.032928707623719904,"341":0.044983295280576215,"342":-0.01902282599738782,"343":0.02990201831583414,"344":-0.049752638696351666,"345":0.008907665052448572,"346":0.0655198125664324,"347":-0.04747323988003763,"348":0.008405749451165968,"349":0.029844363117458524,"350":0.0012586412309655527,"351":0.0237271077188755,"352":0.03054790131674038,"353":-0.004487657733695998,"354":-0.02513429242039357,"355":-0.08382418617313873,"356":-0.03092390724102674,"357":0.007955580550509139,"358":0.052453327035751056,"359":0.040644062773780826,"360":0.050667422811174326,"361":-0.045513266280657334,"362":-0.024123799999061172,"363":-0.020226790512191287,"364":-0.011197505738838218,"365":0.013441607529406584,"366":0.06721543565841497,"367":-0.013851225510329591,"368":-0.04653200281387951,"369":0.05558428088116341,"370":-0.06813627955577277,"371":-0.0325221546716322,"372":-0.04175938638881979,"373":-0.007459595603543589,"374":-0.020250070087578113,"375":-0.022311969178762204,"376":0.05295350160613234,"377":-0.0004693688891836663,"378":0.010946761703115152,"379":-0.03978434855807742,"380":0.0009087947895379422,"381":0.010797929480161544,"382":-0.025532746062604576,"383":0.025358334780359947,"384":0.027994189106162,"385":0.009682408537456465,"386":0.05091726876524052,"387":-0.03398882678118415,"388":0.03800472074832337,"389":-0.03135790976042036,"390":-0.010123052852830872,"391":-0.03864015316274323,"392":-0.010076422825317026,"393":0.054556758988350953,"394":-0.05597651497272131,"395":0.012427181191346495,"396":0.0212216402874468,"397":-0.010948375160781615,"398":0.07327287190848097,"399":0.006856797386377006,"400":0.008684786368672023,"401":0.016406339151815844,"402":-0.009568739018997973,"403":-0.029537252669879523,"404":-0.00038240754389578575,"405":-0.027505534876454883,"406":-0.01708071308718148,"407":0.05481097455115754,"408":0.006319051925241612,"409":0.01459815321776054,"410":-0.03387428419382275,"411":-0.005470811666167048,"412":0.04313150783701042,"413":0.01080405934106533,"414":0.03738264514435774,"415":-0.020295537442900753,"416":0.022128372666839816,"417":0.06616205230053042,"418":0.011276109997480343,"419":0.01789164392383183,"420":-0.0305742636377818,"421":0.02498663259335315,"422":0.015037988992338219,"423":-0.016885102707452294,"424":0.022446388711730034,"425":0.013592772291888326,"426":-0.03331482777804419,"427":-0.004521794105481062,"428":0.02690664950444321,"429":-0.012525331727491448,"430":0.03223925502395176,"431":0.008719119455460849,"432":0.003785982146439309,"433":-0.0239152922771702,"434":-0.0025987969003637332,"435":-0.015604122283941212,"436":-0.013264179649018715,"437":-0.004021304241719439,"438":-0.008474214249410127,"439":-0.0573734003619885,"440":0.04853628302909783,"441":0.0011827423332404232,"442":0.048406352350607404,"443":-0.0030642604807630328,"444":0.004903547559906634,"445":-0.06439311233941969,"446":0.010372585146941603,"447":-0.045292995899742436,"448":0.030845528978957336,"449":-0.00010565929631972411,"450":-0.029240135966570505,"451":-0.03174480286394794,"452":-0.03183982398445576,"453":0.024894701497840736,"454":-0.014009552051570054,"455":0.03340197925899343,"456":0.02236164333102383,"457":0.029878978035843686,"458":-0.021696843287232245,"459":-0.02242058895607064,"460":0.020384671045031097,"461":0.022890833966126865,"462":-0.021855783887922267,"463":0.06564222320492286,"464":-0.03305971966555554,"465":0.005455763672484859,"466":0.026363494615710817,"467":-0.01580433193853018,"468":0.07401546425871741,"469":-0.007689618331801619,"470":0.022201900208284008,"471":0.041087380650452275,"472":0.00892196731680133,"473":0.037135803711327665,"474":0.022996665735492597,"475":0.02038002993568354,"476":-0.05356482164230469,"477":0.02727694729394326,"478":-0.04928950493885755,"479":0.07046821635151887,"480":-0.0011190434654854908,"481":-0.0036649351220301124,"482":-0.00990590627619736,"483":0.025091833028974327,"484":-0.01781066376062443,"485":0.03964984202102008,"486":-0.021293931863257048,"487":-0.007732338499566843,"488":-0.07735560621638427,"489":-0.030988436007138943,"490":0.05646211681015037,"491":-0.006415556669619516,"492":-0.02053034358936788,"493":0.037688805970501164,"494":0.018982384880928925,"495":0.0026377115983824704,"496":0.017550696636650338,"497":-0.024586426682152263,"498":-0.021095090925529348,"499":0.023523707565777104,"500":0.035016668097020566,"501":0.06996840289711632,"502":0.009623310437251792,"503":0.004148534812679997,"504":-0.01664832891755677,"505":0.014993124165848002,"506":0.028160204586427685,"507":-0.0408429390774992,"508":-0.055634725025088434,"509":0.011989646166564215,"510":-0.01841959434083209,"511":-0.049587721069149875,"512":-0.06348278220777283,"513":-0.052434920174960084,"514":0.006966878858216572,"515":0.00498925596372751,"516":0.024628505292351985,"517":0.1201359294288543,"518":0.08470999641356186,"519":0.026919253447098217,"520":0.028068083826852365,"521":-0.03081707652502956,"522":0.004074282985652041,"523":0.006776293443212084,"524":-0.015328070444678757,"525":0.07686385768396271,"526":0.06609554573470483,"527":0.021121888058468728,"528":-0.026662021641846445,"529":-0.013943962411453455,"530":0.018449684043742583,"531":0.01845003305823454,"532":-0.004886343252275128,"533":0.024755233785092208,"534":-0.007879975793902844,"535":0.0544594821748089,"536":-0.03786376020553471,"537":-0.009150376581228385,"538":-0.0008868171123832553,"539":-0.02642248836006737,"540":0.010225436488984089,"541":0.005973012621286574,"542":0.0011305802962881713,"543":-0.08952724954803376,"544":-0.0012247775005680228,"545":0.016592228764708023,"546":-0.035827472938925034,"547":0.018833975268464156,"548":0.016912211773837,"549":0.02129047133311824,"550":-0.04775167211417787,"551":0.002765549250998625,"552":0.00397596764280675,"553":0.005934974446484312,"554":-0.06732182766384218,"555":0.049934306703586014,"556":-0.046318811265094066,"557":-0.038693769908130574,"558":-0.008543562517495055,"559":0.008862610472690501,"560":-0.010799595760637224,"561":0.0013623936752510367,"562":0.011821137239188425,"563":0.04398738139771405,"564":-0.013867143807832242,"565":-0.008100523820959908,"566":-0.023236625843898285,"567":0.035455223598104525,"568":0.05090377917650224,"569":-0.03586766142270031,"570":0.029393085491236214,"571":-0.052522971077858915,"572":-0.0324356406526274,"573":-0.03145304624191484,"574":0.021600196438957928,"575":-0.036202568470237124,"576":0.02265226367219975,"577":0.02319849116033509,"578":0.007985573254885402,"579":-0.033800453889410755,"580":-0.011226691922484008,"581":-0.02283382686064266,"582":-0.00046548966040098355,"583":0.01680047823308138,"584":0.01269907235351849,"585":0.0019555428846652367,"586":-0.03136316742682596,"587":-0.06433427446652468,"588":0.027922197549631964,"589":0.004420602749280395,"590":0.012154679675268952,"591":-0.028323836031708183,"592":0.011119075202613252,"593":0.05805304348321409,"594":-0.07734513004371986,"595":0.025527199954102076,"596":0.04845777908717242,"597":-0.0018431582066508803,"598":-0.026637257490741403,"599":-0.032302693895213744,"600":0.024310169278970322,"601":-0.09936634136794861,"602":0.05781617300086855,"603":0.025529161257689455,"604":0.058692595127757485,"605":0.03630047800896911,"606":0.03879547810640392,"607":-0.014151923493403527,"608":0.0011220899427469868,"609":0.018033700339304994,"610":-0.0113718617256674,"611":-0.021136943314796798,"612":-0.02439851207658198,"613":-0.04772469911169432,"614":0.009996495171098073,"615":-0.005956278503060594,"616":-0.05699912141155148,"617":-0.05111162079993326,"618":0.02736202400283083,"619":-0.002226226658407111,"620":-0.027561362375174498,"621":0.0516327889890646,"622":-0.020146070481697535,"623":-0.04228856943022534,"624":-0.04779395766060255,"625":-0.019634123552928227,"626":-0.0037240862795386853,"627":0.05248477477135721,"628":0.09507341155835775,"629":-0.06653495599793662,"630":0.010313017221854619,"631":-0.0202924861157222,"632":-0.05873035131725984,"633":-0.09859256956933934,"634":0.0007067058335051948,"635":0.03923933339581187,"636":0.019689558136407024,"637":-0.03965439945972979,"638":-0.017591515954922088,"639":-0.020278094298935772,"640":-0.04248657347609352,"641":-0.001455690033104246,"642":-0.004726504799601501,"643":0.03527749044708751,"644":-0.0012368826433601105,"645":-0.040448704893188685,"646":0.036742881963047,"647":-0.026018222315487383,"648":-0.021573814848362367,"649":-0.09760444060179263,"650":0.013814514394797896,"651":0.03851188989487295,"652":0.006378636735500512,"653":-0.0028354127983292454,"654":0.016075805665201368,"655":-0.05523107586821557,"656":0.014861489573471486,"657":0.03238721751911238,"658":-0.025842806763372073,"659":0.0023449006483526632,"660":0.017693506072535895,"661":-0.009958430307041086,"662":0.04307173107662754}},{"sx":1,"sy":1,"depth":663,"w":{"0":-0.01869949940638088,"1":-0.025366360271373043,"2":-0.04939778443488139,"3":0.007988736528499973,"4":-0.01499420313675781,"5":-0.1112879104502857,"6":-0.02422075282505407,"7":-0.050281415839280745,"8":0.04644671986450678,"9":0.05586201146886127,"10":0.029521724471755176,"11":-0.04883335516173976,"12":0.012786915948984252,"13":0.07720727654989906,"14":-0.04061485932066012,"15":0.05049302211700453,"16":0.00158350662211687,"17":-0.0686452288703058,"18":-0.0742516712462141,"19":-0.02296695826454261,"20":-0.03751188313717937,"21":0.032633171817783385,"22":0.02787800244875927,"23":0.02335362274143838,"24":0.01530036879570502,"25":0.0037848202611434566,"26":0.010410952244386155,"27":0.0008411624771120556,"28":0.04344915659220022,"29":0.024493041718378798,"30":-0.05675995843709197,"31":-0.09271293592494116,"32":0.0012034761555768615,"33":0.057603692052886526,"34":0.05233646564021853,"35":0.03873305862114169,"36":0.041400957210563125,"37":0.019229656316615773,"38":0.008519171212133723,"39":0.009865130833939927,"40":0.06900101521672972,"41":0.03044340592745082,"42":-0.0421498472760482,"43":-0.004499659434505516,"44":-0.08726374913785023,"45":-0.018099976319192145,"46":0.011387532657831621,"47":-0.04685554866259121,"48":-0.04770206768715052,"49":0.008343140996956246,"50":-0.021266743518808973,"51":-0.0033038612028981978,"52":0.01567067780911681,"53":0.03790596201827051,"54":0.00829567706047686,"55":0.07146190679370332,"56":-0.038367670359671674,"57":-0.04031658463485759,"58":-0.026344794353384975,"59":-0.020901616716144718,"60":-0.021417421456916486,"61":0.017276127801161494,"62":-0.010029984489618487,"63":-0.026055740930888006,"64":0.07291693767345175,"65":-0.060700604925832055,"66":0.006811455078452184,"67":-0.01084496647513543,"68":0.01243987827040506,"69":-0.02901259213794718,"70":-0.06759879300130087,"71":-0.04413558020172972,"72":0.028563160540912732,"73":-0.005121182707238661,"74":-0.04064555507940159,"75":0.026961210319157092,"76":-0.010332716956142836,"77":-0.004016633486719798,"78":0.04687964001221972,"79":0.01479962064166708,"80":0.018611800147358852,"81":-0.06780034598346854,"82":0.006802237418953867,"83":-0.01544562174196526,"84":0.019073339276824874,"85":-0.03459004019281449,"86":-0.0047606173558342535,"87":-0.02736181131467822,"88":0.003170196884145683,"89":-0.008009303302249976,"90":0.027218237742617318,"91":-0.05652087679291544,"92":-0.014730148422242403,"93":0.014551832074502084,"94":-0.07995386881839675,"95":0.0457443483285056,"96":-0.0382396574804645,"97":-0.00047703857850191894,"98":0.0633643899378775,"99":0.023902180858864704,"100":0.07772661818246193,"101":0.012049002619397208,"102":0.03559573432858975,"103":0.047522493740886664,"104":-0.04589171961998189,"105":-0.04625126319122917,"106":-0.031888093247328574,"107":0.03391315160600814,"108":-0.020369094956439328,"109":-0.008325323215259618,"110":-0.011273479677072519,"111":-0.023998917699425033,"112":-0.04028481636929932,"113":0.03871629151723504,"114":0.015192508804402646,"115":0.028791253276633424,"116":0.013438234536859162,"117":0.03806727773726949,"118":-0.007284496620786105,"119":-0.018834909401484454,"120":0.0016633223268551294,"121":-0.028566097746663445,"122":0.04664156608421066,"123":-0.0499394291557705,"124":0.049820675647428224,"125":-0.03432954733438117,"126":-0.02282533522104278,"127":0.03113151443203028,"128":0.013979648122834174,"129":-0.001982371026218547,"130":0.013145153388800044,"131":0.013988353606158728,"132":0.036136754504434904,"133":-0.04392104644879935,"134":0.02737197079624562,"135":0.01866860763768243,"136":-0.047612203713216554,"137":0.03655605012282594,"138":0.05063251195652315,"139":0.00681350385187404,"140":-0.006102359305872021,"141":0.06497129110773021,"142":0.019953571745870605,"143":-0.13621949754912555,"144":-0.0037096577225040933,"145":-0.028172706780717795,"146":-0.029859082924830943,"147":0.0018435390331419971,"148":-0.004183741031907399,"149":0.02469997753117614,"150":-0.008443262822020393,"151":0.029828681790961886,"152":-0.024385227542418172,"153":0.038858675922970105,"154":-0.05547132759044732,"155":-0.001972091609633484,"156":0.013793777003867901,"157":0.042990311380688796,"158":-0.043113026382226,"159":0.06054563350126379,"160":-0.07028745906568563,"161":0.0009735856323864956,"162":-0.052769696987709266,"163":-0.03789945766066418,"164":0.007635320802212375,"165":-0.05005445172151544,"166":-0.0065149665780127805,"167":0.0920568660896428,"168":0.080584015407118,"169":-0.04739218312647222,"170":-0.013808733329473313,"171":-0.024518318585436277,"172":-0.03401083778798385,"173":0.04520111857459622,"174":0.018360511145173952,"175":-0.019831895933504692,"176":-0.012877182186728989,"177":0.033202385487086886,"178":0.03075190464247629,"179":0.020415535133632163,"180":-0.0037807381043931175,"181":-0.003635830503092283,"182":0.006912972803073156,"183":0.008236697101448687,"184":-0.06302649868939586,"185":0.015927997197681273,"186":-0.011712354188107968,"187":0.029553547449811094,"188":-0.03627174224729413,"189":-0.02983767140476522,"190":-0.008246677294927581,"191":0.04343408663996132,"192":0.0017803139629955936,"193":-0.006625189957269521,"194":-0.08305319151443548,"195":-0.02821823466715745,"196":0.012746410373036797,"197":0.00932516541112504,"198":0.03023816062605262,"199":-0.015000012452909182,"200":-0.07230963470372267,"201":-0.01439706605580632,"202":-0.0800877244506317,"203":-0.013711038554377263,"204":-0.036182223938348836,"205":-0.09043605421788348,"206":-0.016630733048567794,"207":-0.030095399348610878,"208":0.05640414571420814,"209":-0.0050923518083428425,"210":0.04790333282342697,"211":0.014021164139526187,"212":-0.03813651068264621,"213":0.03935026755795737,"214":0.016001031781064573,"215":0.030062767815436986,"216":0.02024140121349263,"217":-0.014931353872440418,"218":-0.038526721858001,"219":-0.009212653058808603,"220":0.06292749044254532,"221":-0.01573797126851779,"222":-0.05362085608792753,"223":-0.004224385664572568,"224":0.022622252913309986,"225":-0.022442598803471245,"226":0.01519539982772816,"227":-0.03689341725716984,"228":0.02223663114169929,"229":-0.011219618547142972,"230":0.0028070839373515928,"231":0.022595643715757716,"232":-0.000620230024887932,"233":-0.03432512049636551,"234":0.03941376411739517,"235":0.0010970038635575259,"236":0.10431927019605866,"237":0.10657893045533105,"238":-0.006368790943738759,"239":-0.008903509143279639,"240":-0.04035134698648397,"241":0.015278789455686477,"242":-0.00922803009062053,"243":-0.02110847017904629,"244":-0.030818587197895243,"245":0.02189901745990633,"246":-0.020585800223626386,"247":0.06521328522856593,"248":-0.03190084799859414,"249":-0.000244788057170516,"250":-0.004982152576336913,"251":-0.005714510711857131,"252":0.041036301378548176,"253":-0.03285699974735915,"254":-0.06808000805988425,"255":-0.02640091567775811,"256":0.03636130927507663,"257":0.048374978755608804,"258":0.017407783629789172,"259":0.058376962891267356,"260":-0.00942713071342009,"261":-0.037545123826724265,"262":-0.06193564488906391,"263":-0.042364088557334846,"264":0.01795311894325595,"265":-0.004592531810345178,"266":-0.003971835009219744,"267":0.04017669685318623,"268":-0.025717272174065085,"269":-0.06309085883860735,"270":0.025976782815145077,"271":0.038439676718611,"272":-0.00414844304631466,"273":0.06145363542890753,"274":-0.08102162555340926,"275":0.04388534491272664,"276":0.03172086188523076,"277":-0.015015329500723693,"278":-0.0026070265174107095,"279":0.01766723993362689,"280":0.036271611452016725,"281":0.013112470506041675,"282":-0.01398276776287662,"283":0.05412538664656861,"284":-0.08105020170585525,"285":0.03779177504451968,"286":0.00301513898109532,"287":0.010002842909490372,"288":0.05586020459385607,"289":-0.018817771181923456,"290":0.030918605263587157,"291":-0.020038366257496755,"292":0.06847253447671543,"293":0.08905318932647245,"294":-0.07649206606412054,"295":-0.01855100423646536,"296":-0.025543632346255413,"297":0.0020332496462801466,"298":-0.0006194255195631276,"299":0.022508920447422767,"300":-0.008223036010180545,"301":0.037669734296050056,"302":0.018650859383672065,"303":0.06840157575913554,"304":-0.02119258590277291,"305":0.01224325921161188,"306":0.06162837089846134,"307":-0.005737220555693445,"308":-0.0749805479463638,"309":-0.03527282666738449,"310":0.048589505570537136,"311":0.025736165962244865,"312":0.04055216427924494,"313":-0.03542571767553667,"314":-0.0034026340967541363,"315":0.01707030948759231,"316":0.06760379991786043,"317":0.0015702392620657053,"318":-0.03214331337366314,"319":0.03867310744594791,"320":0.06908631762078123,"321":0.06303973337806973,"322":-0.0609387192151044,"323":-0.0403405792604709,"324":0.03433747860956623,"325":0.03523762311930784,"326":-0.03154898434122729,"327":0.0596116637396735,"328":0.03494134748014466,"329":-0.04718657649327583,"330":-0.0183337597089356,"331":0.01195551645449197,"332":0.001971278389530024,"333":-0.009224039155627022,"334":-0.03421721162177057,"335":0.08123900182754559,"336":0.040484484154029325,"337":0.055551271975291146,"338":-0.038601610253672404,"339":0.06974338256012108,"340":0.034509467906214966,"341":-0.07784424293956314,"342":0.017453544394527218,"343":-0.0106371020665364,"344":0.09943520424270982,"345":-0.04072112165265354,"346":0.022003301530850672,"347":0.01706456724880521,"348":-0.03513644107489058,"349":-0.08683461669641333,"350":-0.02902760996594245,"351":0.011297523432669902,"352":0.015942142601644494,"353":0.03188396651646473,"354":-0.03833446621901648,"355":-0.017738197767052506,"356":0.005974015440599107,"357":-0.04658206097193937,"358":-0.08390039566532607,"359":0.043683356746086234,"360":0.013188227372562325,"361":-0.04271837320756825,"362":-0.06006426856372044,"363":0.04124347553467205,"364":-0.08669090125048325,"365":-0.07593151255127065,"366":0.025540242988644695,"367":0.012367100379476454,"368":-0.014537105032258824,"369":0.004374829509383744,"370":0.0008664760907570366,"371":0.0009847163274723332,"372":-0.025772201897105163,"373":0.010275589375047002,"374":-0.03187781134431954,"375":0.009762952969012003,"376":-0.019488201789852607,"377":0.05874145286720809,"378":-0.0581292544687174,"379":-0.004758279790050034,"380":0.004567293567419097,"381":0.024440370411774763,"382":-0.019681913254214027,"383":-0.07096956688824793,"384":0.06363844104468014,"385":-0.046382586266649206,"386":-0.04233790507223217,"387":-0.005323961831768339,"388":-0.0462070478222649,"389":-0.025491336218618005,"390":0.010232150991434413,"391":0.02450712316261715,"392":0.03541030904463519,"393":0.04388934956476517,"394":-0.004894040224735054,"395":0.07952276604641242,"396":0.003133545578664126,"397":-0.026218252748284314,"398":0.022326388693476005,"399":-0.020798281272960985,"400":-0.03223569208393865,"401":0.01305089611784399,"402":-0.002045239506031507,"403":-0.024824363209282514,"404":0.07653896187609492,"405":0.031598817223272284,"406":-0.02200856074065173,"407":0.03141406109793657,"408":0.014806845480424487,"409":-0.0003955085597014393,"410":-0.008159594874847685,"411":0.031117339620048683,"412":0.06625976909566286,"413":0.0031783217122969666,"414":0.011505292869706366,"415":-0.024463504252985338,"416":-0.025170031166215315,"417":0.029487115728533894,"418":-0.0036347369197714577,"419":0.0594349003119035,"420":0.0824046593676634,"421":0.012052668673470561,"422":-0.03871338710195008,"423":0.004239180473610152,"424":0.0542050380206023,"425":0.11256925439501471,"426":0.057450993796593484,"427":0.005136664946830277,"428":0.05329562592098548,"429":0.0027226886350227536,"430":-0.029146209407099246,"431":-0.011108741960874541,"432":-0.03283139568304931,"433":0.03300227725772867,"434":0.020955869281735266,"435":-0.01049152648611192,"436":0.02131930813896602,"437":0.004776042433595193,"438":-0.032097272917213954,"439":0.04348846247386139,"440":-0.01628838903056561,"441":0.014200788735919864,"442":0.02802407590248394,"443":-0.042699854832368773,"444":0.011665380808452655,"445":0.07446964453345892,"446":-0.03878739475885496,"447":-0.017177286940143862,"448":-0.04553712210908665,"449":-0.009798775086815405,"450":0.012113890669738461,"451":0.030909660215868977,"452":-0.05082188832081795,"453":0.009751209733377153,"454":0.004353696590348233,"455":-0.016850894333710113,"456":-0.012251400310301653,"457":0.020650558491808035,"458":0.048808380489868505,"459":0.03778416138992664,"460":0.020067236173144563,"461":-0.0014671912033737177,"462":-0.013643162870640003,"463":0.00871350148822908,"464":-0.020964449611021105,"465":0.0472021554330714,"466":0.0026453926060455634,"467":-0.02179310916630039,"468":0.0056600080407911745,"469":-0.022470596039586663,"470":0.00038606158346928785,"471":-0.01985990082327035,"472":-0.012669016961322638,"473":-0.032208038442585525,"474":0.06540986198309166,"475":0.03224007183370389,"476":-0.01117989478869923,"477":0.026438816957596045,"478":-0.024193460087121695,"479":0.007087708877245115,"480":0.008653087003958183,"481":-0.004045701772316142,"482":0.003042303268753952,"483":-0.0057292637207937815,"484":-0.017281467495397065,"485":-0.012338750045057422,"486":-0.0433232641681034,"487":-0.024108579944510097,"488":-0.038864801303833116,"489":-0.008927294124418351,"490":0.006552130318475404,"491":0.009571650286542105,"492":-0.0005947519415216395,"493":0.04398605298663752,"494":-0.0068140131525573884,"495":-0.0057860650674818525,"496":0.0603379312047906,"497":-0.07512183260740288,"498":-0.003775222476282133,"499":-0.02461592836243957,"500":0.04672174911612829,"501":-0.005832051806770948,"502":0.024134508147122688,"503":0.020533884634652687,"504":0.024300182570022193,"505":0.005812372197331002,"506":0.013363312937168194,"507":0.0077796407520729334,"508":-0.032078175993639164,"509":-0.02490553126779654,"510":-0.009850575484341557,"511":0.05573790758101098,"512":-0.004271781077918291,"513":0.01382336937810359,"514":-0.02588214999814644,"515":-0.05641860433461968,"516":0.0012381795928488647,"517":-0.042436138228202074,"518":-0.0062560627389277226,"519":0.02336005021621161,"520":-0.0457220766229908,"521":-0.05841027537200771,"522":-0.001059694490880816,"523":-0.001560273545539364,"524":-0.02410029196115212,"525":0.007724296675672742,"526":0.044343562501325394,"527":-0.005340620230607268,"528":-0.009999874901148103,"529":0.006700091341486844,"530":-0.036632839173808315,"531":0.036316444082291656,"532":0.0457750203289747,"533":0.01945598176307914,"534":-0.008447333657094377,"535":0.024714074095516927,"536":-0.04727165233922207,"537":0.07847181586509507,"538":-0.02283852434370433,"539":-0.08924601375283382,"540":0.08778891628129769,"541":-0.059614252387979454,"542":0.08913260018500758,"543":0.043571209122805606,"544":0.054359445511761376,"545":0.00011543543529751062,"546":0.04459681633672021,"547":0.008741281863752054,"548":-0.002487844248631133,"549":0.0584807992227345,"550":0.0120272934559591,"551":-0.06555979418410107,"552":-0.021049084810225865,"553":0.0201069387942013,"554":-0.054423771598941295,"555":0.010715603593843473,"556":-0.022837231706490074,"557":-0.056727784114720924,"558":0.04589908705527573,"559":0.027868898807219364,"560":-0.0003258560523417259,"561":0.00489178225059338,"562":0.06392152953232925,"563":-0.02705123324517946,"564":0.005570117949466818,"565":-0.015788175816451012,"566":0.027149394908033416,"567":0.026522878583241444,"568":0.023670770177258174,"569":0.04061942409398614,"570":0.004637205664661931,"571":-0.013090089721254044,"572":-0.050360943481909476,"573":0.0014561893466274135,"574":-0.053691746597086504,"575":0.05086959358726029,"576":0.03792304051814975,"577":0.02612584346627686,"578":0.02824029067546804,"579":-0.07267629651038846,"580":-0.03714943552030704,"581":-0.05557681790714182,"582":-0.08555030815903357,"583":-0.00801876614961756,"584":0.02925817936950441,"585":0.08357399642369823,"586":-0.03795327641177448,"587":0.09105648984979088,"588":-0.0014924560356495947,"589":-0.06952994293921441,"590":0.020355192952643816,"591":-0.029232452781917984,"592":-0.022044854739678536,"593":0.021942899819982473,"594":0.015420619331310743,"595":0.022616067542397256,"596":0.00473781414277847,"597":-0.007540119438251742,"598":0.0682560031752081,"599":-0.015056230742195819,"600":-0.028997542125769094,"601":-0.019893655838810267,"602":-0.0035782439299249335,"603":-0.04915336241874999,"604":-0.03282280058920707,"605":0.014909123109737112,"606":-0.04142687279847732,"607":-0.030740343038229912,"608":-0.04333987187362843,"609":0.030564613233980766,"610":0.05810090563559025,"611":0.02839949334746537,"612":-0.028081415553570795,"613":-0.10006989616067186,"614":-0.06018675249529708,"615":0.010318520662190475,"616":-0.020534046882804996,"617":-0.028534108740894456,"618":0.021974278494352833,"619":0.04015022812516553,"620":-0.005136785067095481,"621":0.008120683079660867,"622":-0.058720544449509,"623":-0.013434608866544549,"624":0.0037002275225889686,"625":0.036408372959048654,"626":0.011092060365606983,"627":0.042611823349605386,"628":0.05511964397236819,"629":-0.048438583378611864,"630":0.048714615019115406,"631":-0.10167664567280005,"632":-0.048076935965163735,"633":-0.0657424813577952,"634":0.0010031902952632532,"635":0.01493976130925044,"636":0.00021249725278904268,"637":0.049923880547766766,"638":-0.044956152616818124,"639":0.07112064115997654,"640":0.04798157151873446,"641":-0.00837423836457567,"642":-0.07099283612485072,"643":0.011218535551167018,"644":0.06556591933263702,"645":0.02658409368002659,"646":0.015778449542002457,"647":-0.0035738548526465376,"648":0.10193635745256381,"649":0.051259107678725095,"650":-0.036290183888413784,"651":0.000991473270495841,"652":0.013903749616157417,"653":-0.017655452686307832,"654":0.0037810641483524547,"655":-0.007966225983836192,"656":-0.019378174290312394,"657":-0.012638447250143743,"658":-0.01171745477046255,"659":-0.02782584487603643,"660":-0.0065857368480337405,"661":-0.009795963994100923,"662":-0.05022583234382455}},{"sx":1,"sy":1,"depth":663,"w":{"0":0.032394977316330245,"1":0.023870164639141236,"2":-0.010523938231120413,"3":-0.02214470629601244,"4":-0.03672698463732298,"5":-0.015936966206040487,"6":-0.002620057603583763,"7":-0.02037402164695208,"8":0.020156218513166953,"9":-0.03366215035844121,"10":-0.006609279074568004,"11":0.02066423221249029,"12":-0.007890331280384438,"13":0.04906650459378074,"14":-0.039617536651978806,"15":0.03512427625690762,"16":0.007322997969234001,"17":0.006368604400834832,"18":-0.03904846649575817,"19":0.021282798594627474,"20":-0.05019118438722403,"21":0.07819858693160946,"22":0.01564089863908832,"23":-0.006579295111223537,"24":0.04020063430874895,"25":0.002652215661186028,"26":-0.016319845343303847,"27":0.04421024056400687,"28":-0.009962303142954284,"29":0.07742338695143601,"30":0.045798744348985364,"31":0.015191137308324054,"32":-0.008734048633184022,"33":0.04254918191190293,"34":-0.055536503000576706,"35":-0.045692169990220625,"36":0.03274985893227423,"37":0.010514329610152215,"38":-0.018716790690774143,"39":0.007939637821361633,"40":-0.025538391058276575,"41":-0.014731811468722133,"42":0.003140026094241728,"43":-0.019257469430292065,"44":0.007744059521959692,"45":0.04360728775419969,"46":-0.031186293862462567,"47":-0.017482181345492398,"48":0.017678737215857762,"49":-0.019560659184344114,"50":-0.08368056885468547,"51":0.10681821512423373,"52":-0.012452996310653254,"53":0.004752508458038701,"54":0.0022751246856845125,"55":0.01800434019103744,"56":0.02836568609435373,"57":0.02839386310393609,"58":-0.0008568967900176872,"59":-0.006170442258243481,"60":0.021635433406284155,"61":0.05492063208980176,"62":0.011928887822555145,"63":-0.04155094056988283,"64":0.015961344964623574,"65":0.010444245686104147,"66":-0.02940216715829822,"67":0.06548809685233506,"68":-0.013222605059682181,"69":-0.008059450399108223,"70":-0.011285857918901111,"71":0.021848366903248633,"72":-0.0069117111226777855,"73":-0.06376924646753505,"74":0.03942270977425677,"75":0.05320203499467807,"76":0.01100545426078114,"77":-0.02856887958757832,"78":-0.01496818877764942,"79":-0.07672409304121766,"80":-0.033466970066576354,"81":-0.08844033238556442,"82":-0.03810407842888434,"83":0.010539886121195878,"84":0.030727760441303438,"85":0.023742590571600646,"86":0.06758194253653284,"87":-0.022428194558552925,"88":-0.09357754532657511,"89":0.07755797484033343,"90":0.05116204678016077,"91":0.005934823354653525,"92":0.05770594785779058,"93":-0.0014181334048177013,"94":-0.029292250345204416,"95":-0.05923783842699514,"96":-0.039403032266131954,"97":0.022741867976000647,"98":0.09473272761859958,"99":-0.08848312467021269,"100":0.03551775804686596,"101":0.04766771635516252,"102":0.051427760593383776,"103":0.03411066509893386,"104":-0.018528416306988486,"105":-0.051314826740497435,"106":0.019298380254859797,"107":-0.03658976770065605,"108":-0.03865523962253367,"109":0.00327300210509254,"110":-0.003128949852354801,"111":-0.013477512375236358,"112":-0.038479882304204814,"113":-0.0013137701380166328,"114":-0.028264000125984002,"115":0.05624693342680192,"116":-0.07583058510591652,"117":0.024510693927597263,"118":0.014527444283744782,"119":-0.009299451898452793,"120":0.022194356243414565,"121":-0.002495841919550212,"122":-0.002688325412459584,"123":0.01810225139583579,"124":0.001874538886348426,"125":0.02867158585075913,"126":-0.010597002687395682,"127":0.03806689942287837,"128":-0.02100597525752432,"129":-0.0123881695776007,"130":0.03304809126848051,"131":0.01595677331221312,"132":-0.010985904171648178,"133":0.04435032895953246,"134":-0.010292928748235515,"135":0.0009307795190814429,"136":0.05017020966992052,"137":-0.022689276345343037,"138":0.025856596689904032,"139":-0.026007105539346,"140":-0.0240692596106049,"141":0.027191688562592402,"142":0.005869691422058122,"143":-0.018183217584198816,"144":0.10006207894172092,"145":-0.00721514564087769,"146":-0.025146920120327054,"147":-0.045793891362669356,"148":0.01334223814979727,"149":-0.023969296213328585,"150":0.0344661185869029,"151":0.0030154297774138625,"152":0.02943797119469646,"153":0.057530197655292235,"154":-0.03076217737534967,"155":0.044205071455014,"156":0.05963965940417153,"157":0.022702304425410703,"158":0.03321184662062267,"159":-0.005668671881288069,"160":-0.016488766053330085,"161":0.0031616100122432923,"162":0.006932007773753696,"163":0.019365165943192097,"164":-0.018814428150928805,"165":-0.024416669791019755,"166":0.002642792093245158,"167":0.025910987168859805,"168":0.06241956021008002,"169":-0.01985970064825863,"170":0.027151789156508073,"171":-0.050933644564931733,"172":-0.026835534766111994,"173":0.07056981567732365,"174":0.010685472050442927,"175":0.024158334987199565,"176":0.011421076166221445,"177":0.046929192831629316,"178":-0.007464336051905599,"179":-0.06720467702296071,"180":-0.00038099623893939077,"181":0.04915858700374746,"182":-0.011449621348137068,"183":0.007818204614726378,"184":-0.00035387247689188246,"185":0.040182433639791654,"186":0.007745573607553012,"187":-0.008280810066399236,"188":-0.0005617842124852922,"189":-0.015091116479484775,"190":-0.05465477156725804,"191":-0.022575780718926842,"192":-0.04733411215838931,"193":-0.02036736307746077,"194":0.020727135846924184,"195":-0.007865925136658396,"196":-0.038525953366181115,"197":-0.017789791542739252,"198":-0.051932720275490986,"199":-0.020304694603513012,"200":0.02060964676336345,"201":-0.008739030258480857,"202":0.060014130772285144,"203":-0.04271944422902477,"204":-0.056093858946029286,"205":0.01782197738797693,"206":0.04236660466249139,"207":0.015738018006764984,"208":-0.034006832401419974,"209":0.0050253814447646945,"210":-0.039222632456002854,"211":-0.004711755289850078,"212":0.044988681617393625,"213":-0.023135340412232676,"214":-0.028694295585613712,"215":0.006359383014002063,"216":-0.004412100686109711,"217":0.009478908212515898,"218":0.011813054791298086,"219":-0.07074190123761188,"220":0.059612759067575516,"221":-0.04002478708441695,"222":0.04311427273682662,"223":-0.00894576989264673,"224":-0.0387666520919635,"225":-0.04492629275261336,"226":0.08641174962683097,"227":-0.041147945297971875,"228":-0.053349092954503796,"229":0.04535891115053651,"230":0.03611806417967989,"231":0.024313467771338804,"232":-0.05379149880996958,"233":0.02009523812930216,"234":-0.003110973666860493,"235":0.028940658605835317,"236":0.036729677615114975,"237":-0.05815272360301677,"238":-0.047217359076618365,"239":0.05313269993191802,"240":-0.05160649222432527,"241":0.025107791949820837,"242":-0.054512833483956885,"243":-0.0020342980980015968,"244":0.021434797600566543,"245":0.045074853361698385,"246":-0.03347516731692749,"247":-0.004004256018670115,"248":-0.06378720460497776,"249":0.06963630321837022,"250":-0.032235894616079015,"251":-0.029989270185644793,"252":-0.005930740799276021,"253":-0.019308308171918857,"254":0.009258893626210017,"255":-0.013099460639012626,"256":0.0057510473657044325,"257":-0.06328682812011091,"258":-0.02272073074320018,"259":0.04037274731616072,"260":-0.010833305835581772,"261":0.05799518411804663,"262":-0.03721255045231777,"263":-0.06646917984134627,"264":0.014824049229153398,"265":-0.020599589082504133,"266":-0.0086719922858185,"267":-0.005200236497170404,"268":-0.05204066669671582,"269":0.03386033222315083,"270":0.05313272623508285,"271":0.05015360302860529,"272":-0.010571374340198357,"273":-0.014560021728805796,"274":-0.05575534393577345,"275":-0.006035584785004595,"276":-0.024506044997543514,"277":-0.09648720168115067,"278":-0.029178047875883087,"279":-0.039691994380338304,"280":-0.040272657334612896,"281":0.07609093266937215,"282":-0.03449579835809395,"283":-0.008863990807103993,"284":-0.015294151427112214,"285":0.012268422844372016,"286":0.04628730817836347,"287":0.023876462555987077,"288":0.00576313731355908,"289":-0.010674634750598832,"290":-0.0001184450822718638,"291":-0.048128667802396524,"292":-0.016127577216328886,"293":-0.019512170081347,"294":-0.01496789856196397,"295":-0.014820887687928977,"296":0.008952476670372096,"297":0.005417610340110946,"298":-0.007869702230096014,"299":-0.014002422066712896,"300":-0.055676132415174495,"301":-0.00868870048643746,"302":-0.02674873516815703,"303":-0.025750983186860393,"304":0.002076511305604594,"305":-0.030117169715578034,"306":-0.0385211046716702,"307":-0.014990587862144432,"308":0.0015504160114071077,"309":0.02694446504246237,"310":-0.06713756203764433,"311":-0.06059260937067874,"312":-0.002800124378283598,"313":0.027655000179440455,"314":0.013279022806822312,"315":-0.01052365617656478,"316":0.020501818953180945,"317":0.030383871098557377,"318":-0.013411931424228127,"319":-0.007361745949995588,"320":-0.0234077354251595,"321":0.0714353143742425,"322":0.0044501538896083315,"323":0.015647728104515132,"324":-0.045310766567829903,"325":-0.01758620973476983,"326":0.044796083958538534,"327":0.050662832839289226,"328":0.015973161777965317,"329":0.010509774027691201,"330":-0.009431080339401026,"331":0.12048143831071251,"332":0.00011439843224337575,"333":0.06568986703227472,"334":-0.030642687123712747,"335":0.0038550312260901523,"336":0.02334926158338274,"337":-0.00893606144839902,"338":-0.01663133224302699,"339":0.00925247006367225,"340":0.05777689210971911,"341":-0.056657186505822216,"342":-0.028775333351971768,"343":0.0004968115724437638,"344":-0.08325466059030087,"345":0.0429920886901231,"346":0.013716802552994015,"347":0.02182606721651315,"348":0.06268113227889595,"349":0.007571317658870668,"350":-0.0297858678790464,"351":0.014039610581027696,"352":0.024408455320207665,"353":-0.06203529716003003,"354":0.03243538615156027,"355":-0.035451627751212474,"356":-0.05779576343810963,"357":-0.0062079849249404104,"358":-0.03679804449090385,"359":-0.012621949023603798,"360":0.026000385392307267,"361":-0.0023400685995538365,"362":0.05177682194595983,"363":-0.02187436517369028,"364":0.02884487630515612,"365":0.0025061630831642247,"366":0.011966272141917323,"367":0.028452421224875683,"368":0.024187964265643656,"369":0.0008147040847340324,"370":0.009536151452093166,"371":-0.08948378632587252,"372":-0.024446951258042228,"373":-0.022895594495191927,"374":-0.04034525816674877,"375":-0.008512963347904958,"376":-0.005763811105094978,"377":0.04967187058458181,"378":-0.004206150134135304,"379":0.06034099615206038,"380":0.03793661687236889,"381":0.027122375639303385,"382":-0.015191925721536395,"383":0.040475878388341886,"384":0.046867976998757374,"385":0.05518166379304201,"386":0.03110107600661679,"387":-0.04530729378319335,"388":-0.016758745114586113,"389":0.06656231945270556,"390":-0.01168319330565164,"391":0.012540700245633427,"392":-0.051099773989712514,"393":0.020089828863140254,"394":0.004002810203659202,"395":-0.05991061810834241,"396":0.00955897432785912,"397":-0.050813112614381,"398":-0.04607699646150703,"399":-0.03467106766564214,"400":0.016241591054922087,"401":-0.04746028081051876,"402":-0.042524000958337145,"403":-0.027637917730538673,"404":0.01737496337880989,"405":0.08855730690591111,"406":0.03886147737757161,"407":0.015909363464773105,"408":-0.02151507685412352,"409":0.01937298173644012,"410":-0.05079313785395131,"411":0.02759575204356126,"412":0.005342138409759416,"413":0.004252541550526761,"414":0.06125651025505488,"415":0.03860393040722621,"416":0.02592782503907952,"417":-0.05558791404677297,"418":-0.02355443475898892,"419":0.06456682678779782,"420":0.07007008306109981,"421":0.06201010879038017,"422":0.022175563730986534,"423":-0.047791130252241465,"424":0.0799826593520686,"425":-0.012045553688859999,"426":0.02291801186202639,"427":0.03505476778635672,"428":0.007760728626889336,"429":0.005716874982278861,"430":-0.040989744185875726,"431":0.054640952237468426,"432":0.01971030800535615,"433":-0.0750526594134102,"434":0.04002652124399119,"435":-0.019316265912482693,"436":-0.0026812132150916042,"437":0.0075085031436079985,"438":0.04513681670837054,"439":-0.03905658410215173,"440":0.05300719501895205,"441":0.03600503189741042,"442":0.02764168759342544,"443":-0.03315778124697331,"444":-0.015721224871659806,"445":-0.0803706804371159,"446":0.005462456060451918,"447":0.014754500399048786,"448":-0.005601144334041631,"449":-0.015430732527577993,"450":0.03886172047757407,"451":-0.006141505918953761,"452":-0.02866092091681401,"453":0.034415009353049565,"454":-0.004780941974578633,"455":0.0002436822975062142,"456":0.06058119813152226,"457":-0.04956391032316311,"458":-0.07428227117904401,"459":-0.041578029624617506,"460":-0.05514001953652941,"461":-0.0038826078921252107,"462":-0.014493842318762773,"463":-0.009249211342038793,"464":0.034777192788889626,"465":0.0019546787590785345,"466":0.056817979218975405,"467":-0.025296675516817056,"468":-0.007156860438315575,"469":0.03909864647306264,"470":0.0013220676868995515,"471":-0.026130637801445717,"472":-0.003140366699001479,"473":-0.007504240230120176,"474":-0.06514141758956685,"475":0.005711587688227581,"476":-0.003158456715634285,"477":-0.0038921114858373957,"478":0.0019808247389471547,"479":0.0029336416991787135,"480":-0.0427497083736588,"481":0.0464713657458635,"482":-0.015183265651531523,"483":0.035291846645749046,"484":-0.013170586496489388,"485":-0.005036787792408038,"486":-0.04904661368084588,"487":-0.018388616984922123,"488":-0.0013810065794093238,"489":0.038066402561137073,"490":0.016756903109700773,"491":0.05000924350638142,"492":0.013346395507409924,"493":-0.014096309155444376,"494":0.05329182616186551,"495":0.014098629961335625,"496":-0.0096706092129452,"497":-0.004178999862069014,"498":0.07480273086381697,"499":0.008720420573953985,"500":0.03537335897442487,"501":-0.0032486312098526262,"502":-0.010998196002271168,"503":-0.021310446982041847,"504":-0.01592840436961212,"505":-0.05077372091806952,"506":0.03249017739972526,"507":0.06726619820122563,"508":0.06134772471286317,"509":-0.026358367156587216,"510":-0.0723907105645753,"511":0.007439172543129495,"512":0.03318616786557427,"513":0.0072682580180672505,"514":0.07687881659680429,"515":0.020776626959527967,"516":-0.017222476271235965,"517":-0.021470861475805604,"518":0.07598631460686073,"519":0.02110826576271586,"520":0.029087206044765196,"521":0.013434618734188407,"522":0.04171040770184529,"523":-0.02697423097653275,"524":0.009319134636417422,"525":-0.00651281373365188,"526":-0.04210129888726076,"527":-0.04416360131131113,"528":0.020912204422404483,"529":0.06921635456010665,"530":-0.017358994107080944,"531":0.07274754568054839,"532":-0.01765963309221255,"533":0.0018472884026015525,"534":-0.03984404729871054,"535":0.0208736493540089,"536":-0.03414759957968501,"537":-0.008879864629044576,"538":-0.08791797067649329,"539":0.000978922508553664,"540":0.03805955895387126,"541":-0.0051486586296194525,"542":0.02234257726317326,"543":0.007071468220894348,"544":-0.0008020884709777691,"545":-0.009707000199289223,"546":-0.014663861678723739,"547":0.017127499419054164,"548":0.0321995631413283,"549":-0.04894590654261786,"550":-0.030415942238318797,"551":0.025167233390844115,"552":-0.03348565254520337,"553":-0.058987880975794924,"554":-0.0033627649288837536,"555":0.029035445752193783,"556":0.035618327743911195,"557":-0.032314584026814024,"558":-0.002213415761144219,"559":-0.0008850760182202379,"560":-0.05926165121074454,"561":0.01659044523323791,"562":0.07321092092793223,"563":-0.002449469333759016,"564":0.026575166597792323,"565":-0.001043118925850949,"566":-0.017950781281563768,"567":-0.04279449441567389,"568":0.009330631599399088,"569":0.022748679896833282,"570":0.013090630963061112,"571":-0.023517324708826826,"572":0.008093094294343114,"573":0.020621068830181378,"574":0.005466519139192747,"575":-0.0003183634134229503,"576":-0.022612427693567853,"577":0.03523307732867333,"578":0.05822582492061541,"579":-0.03779175166215142,"580":0.04379399126013692,"581":-0.005738635999193153,"582":0.01026043671239292,"583":-0.052309238789163555,"584":-0.03307881333976208,"585":-0.027717884039300172,"586":-0.06058623935721553,"587":0.03358803429335099,"588":-0.01114910714276316,"589":-0.008417630282875854,"590":0.021461400775194366,"591":0.04339490638986419,"592":-0.007303616310844036,"593":0.0079866365554711,"594":-0.03387530963296773,"595":-0.04862516509893773,"596":-0.008500287407385194,"597":0.05755034790234395,"598":0.009604101523254437,"599":-0.0077614468908593056,"600":0.06562626035486284,"601":-0.007226933311870106,"602":-0.04390248583250376,"603":-0.010557320404910128,"604":-0.027885041553347246,"605":0.044734268170323915,"606":-0.07501767003357361,"607":-0.0017897280055146976,"608":0.11021316197042881,"609":0.07952920558770836,"610":-0.0029200207687135353,"611":0.00587164741674248,"612":-0.01677905628967236,"613":0.04561423415083165,"614":0.013904416841226971,"615":-0.026231507056332547,"616":-0.012278300854020907,"617":0.07738167953012459,"618":0.017807190139390496,"619":0.03568565839596186,"620":-0.022720971573148622,"621":0.06728412272768493,"622":-0.01890072640327431,"623":-0.03936714472565294,"624":0.04868353717366438,"625":-0.021221781694063555,"626":-0.018534533111909036,"627":-0.03520758447410824,"628":0.046185224052538894,"629":0.10719623755266572,"630":-0.01024755487902928,"631":-0.056822500506756156,"632":0.055520582617288976,"633":0.045499213864024335,"634":-0.03320268759810477,"635":0.03547532243516814,"636":-0.05061265545307769,"637":-0.0349609715389965,"638":-0.015097034917456644,"639":0.05441188885683569,"640":0.013182940991071654,"641":0.024883710848535256,"642":0.08812593618412712,"643":-0.0017907946822019502,"644":-0.015181463693113063,"645":0.032260263927039394,"646":0.002704404359473591,"647":-0.05565774828400196,"648":0.05936436086824055,"649":0.12434682610905164,"650":0.05593529331423526,"651":0.05664313947976866,"652":-0.03966422246042297,"653":0.013102032908388059,"654":0.022363840787492734,"655":-0.05660111401354441,"656":0.008137128349548205,"657":0.03255002905415687,"658":-0.012143850585057934,"659":-0.0025334474665600266,"660":-0.006562282051751078,"661":0.015917834680125913,"662":0.00940181087719042}},{"sx":1,"sy":1,"depth":663,"w":{"0":-0.02539782726658229,"1":-0.030732704882263776,"2":-0.06807212979334097,"3":-0.0014490619931453552,"4":-0.0066151642049612795,"5":-0.03706368544546116,"6":0.030407320239288858,"7":0.004262839211161645,"8":-0.07130234531897234,"9":-0.028935327986532654,"10":0.0028741896780542443,"11":0.005934236054673086,"12":0.009062957077535624,"13":0.1080315688480773,"14":0.043737186239448875,"15":0.022545658221405897,"16":-0.014655109421222752,"17":0.04571270609270771,"18":0.04698527713475939,"19":-0.021944343189405274,"20":-0.007263522350077004,"21":-0.02927594162786832,"22":-0.0037129944281714187,"23":-0.002520192504414417,"24":0.03506260595962644,"25":0.013128581311092926,"26":-0.02035574257188145,"27":-0.043336232486581854,"28":0.03328005595538059,"29":0.03243858217083871,"30":-0.042888954536816175,"31":-0.02770237292292852,"32":-0.015828403247753715,"33":0.007874443224873169,"34":0.04370895016297441,"35":0.027360702640093926,"36":-0.01517018937438582,"37":0.07819560597297265,"38":0.010876086009010138,"39":-0.0804813692985988,"40":-0.001071490698663797,"41":0.014444986601740123,"42":-0.05813445097886296,"43":-0.026063242675785074,"44":-0.052332370790741246,"45":0.013280390388793377,"46":-0.006475514446363214,"47":-0.019549103368344395,"48":-0.011596131450536052,"49":-0.04517764378083259,"50":0.03246845622705193,"51":-0.026686065639752118,"52":-0.05598863763870434,"53":0.0227115009871826,"54":0.028069020542572494,"55":0.01099596018650426,"56":0.06587558383231218,"57":-0.026758687491006267,"58":-0.009702326087874339,"59":-0.026723495578311503,"60":-0.05503891343738774,"61":-0.029437997534849103,"62":-0.02186138362936999,"63":0.035970510804046577,"64":-0.012063855525892423,"65":0.05679315167858623,"66":-0.017935280927120066,"67":-0.015072147829444911,"68":-0.028758803599554374,"69":0.008435548015493228,"70":0.02831638348292316,"71":0.026857320326956036,"72":0.011187188782623689,"73":-0.016263842731824595,"74":-0.014014987029326914,"75":0.0012569394573610987,"76":0.0320748299439772,"77":-0.013486125049947952,"78":0.03331447859529834,"79":-0.06609307835162954,"80":-0.03335683401501759,"81":-0.028519847295080846,"82":-0.018204768740723385,"83":-0.029304942705263008,"84":0.06766706634047041,"85":-0.018352904260512386,"86":0.012364364632500346,"87":0.009505668947285453,"88":0.03473524167000973,"89":-0.04675406758315873,"90":0.008592724145532185,"91":0.04661514927383161,"92":-0.03410357687408667,"93":0.016626310598523646,"94":0.0024178384183296845,"95":-0.05760711982972128,"96":0.0624050687859552,"97":0.046636526505880814,"98":0.07535833722447555,"99":-0.00004496689429969495,"100":-0.002623318522301309,"101":0.029924831929387885,"102":-0.1031777278242378,"103":0.023371778740937984,"104":0.02976751232534527,"105":-0.010797839373658687,"106":0.017274116080608755,"107":-0.03709544158827076,"108":0.0191534297547731,"109":0.029680837261775218,"110":0.021569895628641134,"111":0.03475794920438247,"112":0.007559752768322145,"113":0.016263390809337714,"114":-0.00965299337211269,"115":0.015920483437341502,"116":-0.04174785796124584,"117":-0.08769478533187619,"118":0.028065756183530785,"119":-0.004993689458748492,"120":0.03005948937828027,"121":-0.02886541284177689,"122":0.061565618742781866,"123":-0.02501489164779151,"124":-0.03669739380868415,"125":0.029430758470905243,"126":-0.01055926431912506,"127":0.04861244064807523,"128":0.01643501577220513,"129":0.0067962172985074724,"130":0.019721668216170104,"131":-0.0367582373550803,"132":-0.016333684208037005,"133":-0.025516219141656058,"134":0.005291880984906488,"135":-0.06056753081587799,"136":-0.0004162764907141344,"137":0.004037767502900137,"138":-0.04329995950618131,"139":0.04179221653604491,"140":-0.036350385455768984,"141":0.08100406136047453,"142":0.06611026364117437,"143":0.08132983608944203,"144":0.02420807514775705,"145":0.02134519464281819,"146":0.040641742559553544,"147":-0.024517823204489284,"148":0.011685165757874748,"149":0.022027432194536036,"150":-0.0114544371791158,"151":-0.06902233996752981,"152":-0.015782655110675177,"153":0.002072605954186952,"154":0.0021730722411849044,"155":-0.021465778430370838,"156":-0.011966513933741374,"157":0.007210073487396596,"158":0.013645452842162486,"159":-0.03402463470204645,"160":-0.04621461167743096,"161":-0.014541503212736383,"162":0.0076151207672572226,"163":-0.05862837917330604,"164":0.012386081288621358,"165":-0.03487899414920623,"166":0.04495662508706278,"167":-0.04450131492670968,"168":0.0047817771280202,"169":-0.012500632523272761,"170":0.05186348286748148,"171":-0.0027342230068545395,"172":0.00791296133431413,"173":0.056684678043488416,"174":-0.0482363559966449,"175":0.029345621648025986,"176":0.034265426494939154,"177":0.039937337905314986,"178":-0.013766705482172865,"179":-0.041235392254307356,"180":0.028465572631498504,"181":0.03867706953482697,"182":-0.029305880986375623,"183":-0.03353724195403993,"184":0.0372715087232072,"185":-0.03573716353328733,"186":-0.026758057072077172,"187":0.03792630677246447,"188":-0.016404101505843125,"189":-0.004630720055641838,"190":0.053283899338947026,"191":0.00016618689452856038,"192":-0.001182438662047892,"193":0.07629981676785692,"194":0.018733499563179885,"195":0.021858473185742473,"196":-0.010901292386130251,"197":-0.047535259094459,"198":0.04011625812342163,"199":0.05137587562317701,"200":-0.00858519224113199,"201":-0.027921233117475908,"202":-0.0251678532407671,"203":0.017477006231336047,"204":-0.08638670790622772,"205":-0.0825867123285147,"206":0.10938312698933945,"207":0.01639948095053491,"208":-0.022482551197057818,"209":-0.013248491245106991,"210":0.0069731250192288045,"211":0.010743178014068431,"212":0.03881033019603264,"213":-0.008957638127195851,"214":0.0030173133974264812,"215":-0.03047987430850693,"216":-0.06985637465930578,"217":-0.024464903885975213,"218":0.045129262336742124,"219":0.004349491687749177,"220":-0.047786165571790766,"221":0.03240945300629055,"222":0.005843880438966983,"223":-0.009380220062917133,"224":-0.06518483162166966,"225":0.036512765141324566,"226":-0.024344977693755744,"227":0.007350390438012567,"228":-0.004848440089289477,"229":0.057928778601001596,"230":-0.0022449469288773707,"231":0.03661763731926413,"232":-0.016131575838050353,"233":0.048601699776287643,"234":-0.021934177227868036,"235":-0.034262834641918045,"236":-0.007386722173780932,"237":0.009273925568756438,"238":0.011839340967554353,"239":-0.05185533199080839,"240":0.026398896391171024,"241":0.05064044378536983,"242":0.008084367770380917,"243":-0.051299047402395534,"244":-0.016239604644036964,"245":0.021200646192346025,"246":0.033783226593472805,"247":-0.023916693098837163,"248":0.0706615087057192,"249":-0.04593571487094347,"250":0.008636449152159236,"251":-0.017324654968923135,"252":-0.020407875992158327,"253":0.028895718748335388,"254":0.09541358821667793,"255":0.06769301686966483,"256":0.020556374789971493,"257":-0.015582560441593545,"258":-0.0276862992060424,"259":0.03363896930787677,"260":0.009051355776256891,"261":0.10240290764404819,"262":-0.030879271369883356,"263":0.004884497552555672,"264":0.010501240385555383,"265":-0.01342870995422386,"266":-0.06003025404828398,"267":0.015357811224732386,"268":-0.013350987314607007,"269":0.033606898730146675,"270":0.012161777063298233,"271":0.01942444587366661,"272":0.01964200355110001,"273":-0.018716270454098675,"274":-0.014408770742858715,"275":0.0617533630562023,"276":0.009906482603170091,"277":-0.015945843895455343,"278":0.01583627775320034,"279":0.039860262144511396,"280":-0.045417680991573575,"281":0.02679747033174973,"282":-0.050491947366423484,"283":-0.01998300527111356,"284":0.02538935281729357,"285":-0.03670842865049387,"286":0.029717666336488348,"287":-0.006582990372621054,"288":0.026323642038982183,"289":-0.010071683571357655,"290":0.0073312764606452575,"291":-0.00966885607970921,"292":0.0018062048123768419,"293":-0.026655223299647816,"294":0.04299906629441733,"295":-0.0003548993209083215,"296":0.021116485028268153,"297":0.057403943850550476,"298":-0.01630686626503373,"299":-0.04230570994985079,"300":-0.03011938461456301,"301":0.03234460110659713,"302":-0.014830188380453541,"303":0.0194012560777141,"304":0.06363885466865936,"305":-0.014050608779297528,"306":-0.023196230112280874,"307":0.05150300314799333,"308":0.07721714179955619,"309":0.011708339849904156,"310":-0.04294743998789256,"311":0.026140923001893596,"312":0.06277682927931123,"313":-0.08182766339073172,"314":-0.04388137037552048,"315":-0.046530470041559635,"316":0.004944856219881039,"317":-0.04929292959627252,"318":0.03573189815329274,"319":0.06257491183348544,"320":0.006025428381026743,"321":0.03436916016055511,"322":0.030894479838253216,"323":-0.027729559434745327,"324":-0.03974941404990526,"325":-0.05204382466631887,"326":-0.05132990277695033,"327":0.036356820486713244,"328":0.05672980971714156,"329":0.08824426914725175,"330":0.02215224107722385,"331":0.015086387222957258,"332":0.040391445480123356,"333":-0.021756960478879452,"334":-0.02750178316961257,"335":0.054795918039422145,"336":0.0026769477801446167,"337":-0.01922149393200342,"338":0.006505794797607555,"339":-0.037411557609548916,"340":0.1270519014457204,"341":0.013685816137447463,"342":-0.03866834862810128,"343":0.014222823020500977,"344":0.05446146252418857,"345":0.14170374576228692,"346":0.033974920101123116,"347":-0.04555357989210174,"348":0.0628987172965632,"349":-0.09548857915083067,"350":-0.009295864136667508,"351":0.057868866756325375,"352":-0.021883278221201657,"353":-0.0021857524695665016,"354":0.04785301528853434,"355":0.032550394661797474,"356":0.043820505239788886,"357":0.018099225384640004,"358":0.0370587376475906,"359":0.03580261882558332,"360":0.0025785946131436275,"361":-0.02161358270010769,"362":-0.04657918421788689,"363":0.022350664260802112,"364":0.002271841133316128,"365":-0.0018182830663208598,"366":-0.0303873445219605,"367":0.009265837289806669,"368":0.011870611049412538,"369":-0.06532498473688492,"370":-0.06733196245601511,"371":0.013652483597269699,"372":0.051119914889616216,"373":0.002301904258189232,"374":0.02667833297659558,"375":0.005401651322497618,"376":-0.010624501903787465,"377":0.02083451470666147,"378":-0.013070776706360941,"379":-0.020204648553546235,"380":0.03310673922876404,"381":0.04310549245202791,"382":0.03128564349527225,"383":-0.030632276667827734,"384":-0.019314720304220382,"385":-0.08330492499550542,"386":-0.07602553695937053,"387":0.030106784356646522,"388":-0.03887777300766876,"389":-0.000839222218303278,"390":0.007938154327462692,"391":0.08258516102858114,"392":0.00223660526001864,"393":0.011686138349943464,"394":0.035289127857804074,"395":-0.024460262747269385,"396":-0.05344831268180146,"397":0.012806627946453611,"398":-0.025143781319888144,"399":0.0003221588649159316,"400":-0.0015113864875145933,"401":0.04332305043216934,"402":-0.04301183642935777,"403":-0.03265825120989711,"404":-0.024339291838695074,"405":0.016809691223955873,"406":-0.09344344559636973,"407":0.03631579824910248,"408":0.0051690877928551385,"409":-0.033823799683148185,"410":-0.001171000520423348,"411":0.005306365861682896,"412":-0.0077596845847562445,"413":-0.06814679376277932,"414":-0.020695460718275115,"415":0.06210731729384052,"416":0.03860774389044777,"417":0.07604308034252216,"418":0.07967006514598036,"419":-0.03730504416843012,"420":0.04004613611424394,"421":-0.009233261826701023,"422":-0.0002465409734191351,"423":-0.02105401918313561,"424":-0.009679358684692628,"425":-0.0001961367210000734,"426":0.02450322360744067,"427":0.044563918518239966,"428":0.0679874732860418,"429":0.025908522592680575,"430":0.011384257407784672,"431":-0.00937951194383737,"432":0.01381248764226684,"433":-0.019907374258355776,"434":-0.004724993365044931,"435":0.018279067877530752,"436":0.012351367616667667,"437":-0.03330471004646459,"438":-0.0045897760789867575,"439":0.02965793537381556,"440":0.0009552030249877635,"441":0.035326651116476246,"442":0.03402682120727567,"443":0.024062396456713504,"444":0.027197057447726204,"445":-0.03167130748680223,"446":0.09564945115585398,"447":-0.04344947791531259,"448":0.004103479668671255,"449":-0.02043309681533742,"450":0.02749498242377211,"451":0.012647633308639791,"452":0.01568556718183996,"453":0.04577248760379329,"454":-0.008002088339402807,"455":0.09272070103785149,"456":0.04041746579887983,"457":-0.10260434227227412,"458":-0.0006872880934077746,"459":-0.00395640017349585,"460":0.0027111392679640576,"461":0.02391919658797976,"462":-0.0065233970657180024,"463":-0.01954297018450778,"464":-0.0003042700230053261,"465":-0.009388279866667362,"466":-0.04536573172623091,"467":-0.04347518738579184,"468":-0.04158396344463092,"469":0.0023124389496429316,"470":0.0446722553668451,"471":-0.044515630136877114,"472":0.0016423675191376628,"473":0.06188593048104376,"474":-0.08541209511930241,"475":0.06713388170216535,"476":-0.0005131800292336788,"477":-0.05071976045477562,"478":-0.08522412090102847,"479":-0.012498837300698631,"480":0.03224587068080288,"481":0.02865081845787002,"482":0.02731810056600486,"483":0.04010244926336257,"484":0.055976372587882274,"485":-0.002080841660027774,"486":0.04602535351748222,"487":0.012898173994809269,"488":-0.016182831620807022,"489":-0.009439676028150493,"490":0.03060429932338404,"491":-0.04660529332580818,"492":-0.024163799225555286,"493":-0.010410884943797348,"494":0.008511727872666365,"495":-0.061594588601590505,"496":-0.034603612461293475,"497":0.01822983889660601,"498":-0.027084865876473203,"499":-0.015661854029496963,"500":-0.039154190093873845,"501":-0.02692020812738807,"502":0.04950944655280258,"503":-0.010565462672259341,"504":-0.03865481340306874,"505":-0.09190816512051445,"506":0.04789943880263063,"507":-0.02879489168196522,"508":0.032990646726891025,"509":-0.00972216362834942,"510":-0.02438394462364392,"511":-0.0013370624020893201,"512":0.03295706046340643,"513":-0.06844336576905644,"514":0.05149100620034817,"515":0.03372493806792269,"516":0.008611034082879311,"517":-0.01666195877660386,"518":-0.05179278428865873,"519":0.025263070074608977,"520":0.05087052354762525,"521":0.004453324555967057,"522":-0.040809623825760526,"523":-0.04149316114975037,"524":-0.04257254145437229,"525":-0.005132508556696331,"526":0.013903180634409554,"527":-0.01482488298500372,"528":-0.02409899163739922,"529":-0.013817043767476195,"530":-0.043442006617299515,"531":0.03178250119250247,"532":-0.0306396404278847,"533":-0.025333600426982628,"534":0.01055315450102334,"535":0.014786422755525871,"536":-0.013373006785690034,"537":-0.010789894917398223,"538":0.002123494075477577,"539":0.01693558232471508,"540":0.013668142057774179,"541":-0.008026016438607524,"542":-0.004218144290549287,"543":-0.036311392037749475,"544":0.019454258214499406,"545":-0.09924959415592816,"546":-0.019286672575966488,"547":0.04026806092243967,"548":-0.008802648633060434,"549":0.004033250720854503,"550":0.037026991446294344,"551":0.04568825142663008,"552":0.023428997959185766,"553":-0.005419344438293315,"554":-0.031748395952469116,"555":0.06733078612778946,"556":0.01737250164085477,"557":-0.07328389696689969,"558":0.030477907541111196,"559":0.007279423852061987,"560":0.01614301837055118,"561":0.039451938000963,"562":0.005967712286502071,"563":-0.05055327985338937,"564":-0.005566703267073552,"565":0.01624197481419165,"566":-0.03427911654782317,"567":-0.002860190474767919,"568":0.024147785333648048,"569":0.06783782092981192,"570":0.021921289386634676,"571":0.022518266470922726,"572":-0.0457295882815779,"573":-0.027294352860635994,"574":0.0006315424834955018,"575":-0.017885677033243584,"576":0.003030603782995343,"577":0.029262418432477223,"578":-0.02557318980975562,"579":-0.017363769867321195,"580":-0.023442111540069147,"581":0.009216254816751644,"582":-0.019633824744910044,"583":-0.0387815972083621,"584":-0.037783148130971264,"585":-0.06887733883586418,"586":-0.027322382535288188,"587":0.043763197834868726,"588":0.011650804205765591,"589":0.007445992579581751,"590":-0.04868013456492557,"591":0.04070435581428138,"592":-0.04175213255088876,"593":0.03650569889986608,"594":0.10440521733426913,"595":0.03351576143709423,"596":-0.026415770979926152,"597":0.009044011158788548,"598":-0.027999654658422503,"599":0.02581189147659501,"600":-0.011219455837334195,"601":0.03982494370806653,"602":0.06389938725494071,"603":-0.03559137314509727,"604":0.03962021474994276,"605":-0.03397245723851076,"606":-0.0019730080285800104,"607":-0.018190962212582602,"608":0.0044090150443125906,"609":-0.056894438966845665,"610":0.04519731559254788,"611":-0.005932759627241036,"612":0.0023661344623211403,"613":-0.04445362283418698,"614":-0.01714341083162877,"615":-0.020086591876697812,"616":-0.07835644542422626,"617":0.03749490865972279,"618":-0.04544282211422724,"619":0.014188221801448533,"620":0.07784043871641066,"621":0.030215653818767528,"622":0.045651623539138105,"623":-0.04162435585569448,"624":0.03745433966421421,"625":0.01668617990707977,"626":-0.05174735566420007,"627":-0.01016500597307163,"628":-0.048363841111467964,"629":-0.054788708484912935,"630":0.01976771714700061,"631":-0.03723823651903195,"632":0.03357572194096797,"633":-0.02382162506080719,"634":-0.006773223090784117,"635":-0.029277112678085384,"636":-0.0186249404057473,"637":0.060417665998299314,"638":0.015008597814476516,"639":-0.056117071595276166,"640":-0.03220358833197565,"641":0.06335759922581824,"642":0.016133186968164306,"643":0.0419864100733185,"644":0.04643111548604664,"645":0.009076842658228147,"646":-0.0608148129027007,"647":-0.0241789394620277,"648":0.04144805172729582,"649":0.015174205464733793,"650":-0.0006547089706188165,"651":-0.045343670574176015,"652":-0.024808985930155812,"653":-0.011845286179645264,"654":0.016311424364298766,"655":0.023151735972850997,"656":-0.04081585071647187,"657":0.02056087576607452,"658":-0.06071804335712973,"659":-0.02689888127402128,"660":0.010543906315609489,"661":0.06894380651898956,"662":0.000632713786303844}},{"sx":1,"sy":1,"depth":663,"w":{"0":0.016344100899640612,"1":0.025125070809470098,"2":0.06598307062536314,"3":-0.04054073858095805,"4":-0.044682449051097715,"5":0.007299012192214507,"6":0.040372467956917575,"7":-0.009436137924579589,"8":-0.04686673526125472,"9":-0.07276348898745695,"10":-0.03723902164970286,"11":-0.03929401702548046,"12":-0.04719435386921015,"13":-0.016834520211367346,"14":-0.0517826896647387,"15":0.05306409414628049,"16":-0.017854728279310658,"17":-0.031351691765776124,"18":-0.043271017337523296,"19":-0.014846704182978853,"20":0.007930913794347584,"21":0.02209529482921544,"22":-0.07104371788014893,"23":0.01572202269003003,"24":-0.051841763407641274,"25":-0.010810871101561204,"26":0.003660868783495941,"27":0.010473065779802435,"28":-0.0348865068010201,"29":0.04707323867070084,"30":0.015945946696526023,"31":0.0408384296387207,"32":-0.011637274228783585,"33":0.0032697534918028686,"34":0.056087137021008315,"35":-0.002819096599084613,"36":-0.025958592316035988,"37":0.006654877284493877,"38":-0.014099301267284947,"39":-0.0391592869577425,"40":0.08979767575421164,"41":0.0031066523980736705,"42":0.00716912241563719,"43":-0.027435984010219128,"44":0.01021128725025877,"45":0.028147813025823046,"46":-0.0437687058185284,"47":-0.013835536406506137,"48":0.014066568585618671,"49":0.010294048094804713,"50":-0.001220510875955078,"51":0.009585376695831316,"52":-0.07692556353312494,"53":-0.035254342805600254,"54":0.005707637696359934,"55":0.020690844901873607,"56":-0.04362216944557795,"57":0.061368907896696905,"58":-0.008797272670866961,"59":0.006943739493195391,"60":0.03474849426574146,"61":-0.00871630973597884,"62":0.0009489029655725139,"63":-0.00007863113325425342,"64":-0.02572932879606592,"65":0.05729066506417738,"66":-0.03142753757539584,"67":0.010625331989985151,"68":0.0024824047986819527,"69":-0.027204003784639795,"70":0.03597525398003118,"71":0.035881099843715035,"72":0.061241261043608865,"73":-0.011306803561767336,"74":0.002789372719432232,"75":0.033908859778983676,"76":0.0013816065532613558,"77":-0.007106217693668756,"78":0.025123506212498994,"79":0.0018652751971858599,"80":-0.04078568041066738,"81":-0.02576065034923121,"82":-0.07869378870980769,"83":-0.031908114236932274,"84":-0.017524487841224286,"85":-0.012051737407526329,"86":0.012347858305008428,"87":0.003046335765180881,"88":0.023961197264284327,"89":0.012636830463456719,"90":-0.004033244174851805,"91":0.0380664597404762,"92":-0.04343879786960417,"93":-0.005884755320590291,"94":-0.0291456809105242,"95":-0.07346437584970704,"96":-0.04534130919887955,"97":-0.04908997492049618,"98":-0.01617983846323581,"99":-0.03950323401523625,"100":0.037042799872463616,"101":0.03623957205729213,"102":-0.04773589849135428,"103":-0.05554185833085423,"104":-0.007826172323570555,"105":-0.03310826471605117,"106":-0.018544086812358633,"107":0.05604726143171195,"108":-0.10440393306789846,"109":-0.00016267409126342173,"110":-0.021254690296343044,"111":0.006489570716962721,"112":-0.06761452606714541,"113":-0.005948486547000604,"114":0.005800592590680722,"115":-0.001077308052431239,"116":0.04470686882296288,"117":-0.045273848552354834,"118":0.04357932906990002,"119":-0.032480809395916244,"120":-0.01693261413832142,"121":0.02779664899135951,"122":0.02420553642560858,"123":0.0029284392089542846,"124":-0.03238716719223127,"125":0.015992826298330914,"126":-0.018723727941395308,"127":0.03304217664105115,"128":-0.02589366033137164,"129":0.013825790202993916,"130":0.0015138303160846564,"131":-0.030956507218810176,"132":-0.009118907175428693,"133":0.0070442240144889005,"134":0.06331657583550537,"135":-0.05809678254086063,"136":-0.03282749057746485,"137":0.0644084793788594,"138":-0.0052212725489723414,"139":-0.03038890475870337,"140":0.022135661256906025,"141":-0.013038490343887859,"142":-0.010112787731820979,"143":-0.012600598752807057,"144":0.08546886898011971,"145":-0.045860611329648734,"146":-0.0030139990313262184,"147":-0.030208540608820496,"148":0.009287419595501376,"149":-0.08253345811998011,"150":0.032514871607294944,"151":0.06302492118020414,"152":0.0691821353694884,"153":-0.004724504270197728,"154":0.001255350662728862,"155":0.05190736999408763,"156":0.04763396872806832,"157":-0.005955460111858253,"158":-0.06234222480123009,"159":0.035954048094373726,"160":0.05885053212218271,"161":0.004305460156297749,"162":-0.0018498705155890883,"163":0.01835892787575662,"164":-0.06895061514593763,"165":-0.07403975073847592,"166":-0.019623368033243063,"167":-0.04404796605359614,"168":-0.05652348351903504,"169":-0.034982023814888005,"170":-0.025242752853979998,"171":0.05736029412188545,"172":0.028224246397895145,"173":-0.035506187586160684,"174":0.04069004119821154,"175":-0.0007863075696798061,"176":-0.023131319141596773,"177":0.08464358413487424,"178":0.021364838527037477,"179":-0.0044640747693655775,"180":-0.0060119513264434215,"181":-0.033753708282970495,"182":0.11351793149878588,"183":-0.02970739254892835,"184":0.061105727094287306,"185":0.06390882502593857,"186":0.08469864869181105,"187":0.05773318042177853,"188":0.025361920034843343,"189":-0.03497645768757421,"190":-0.01464424859223742,"191":0.0734167624684182,"192":-0.01431283447093055,"193":0.01958884604137572,"194":-0.022954928206946886,"195":0.023873920954203234,"196":-0.1272373766615514,"197":0.0051162616804103925,"198":0.0038501562216020756,"199":-0.0004785755993656811,"200":0.022973392984371076,"201":0.012614581414438705,"202":0.024912901101027958,"203":0.020788487924811878,"204":0.07981918634881231,"205":0.0005840430960419476,"206":-0.07190469508411555,"207":0.04831112316568102,"208":-0.0038060348075847376,"209":0.03843146198222225,"210":0.018846920961663634,"211":0.05750107233269992,"212":0.0016306562599416818,"213":0.03216056784127115,"214":-0.019226891584985584,"215":0.03125382265708352,"216":0.002537172695236572,"217":-0.0012916674962316463,"218":-0.01565879209471873,"219":0.0038407877032965417,"220":0.008823968755308342,"221":-0.016281412983419716,"222":-0.040356023541739706,"223":0.009994527912425739,"224":-0.001275775205686344,"225":0.014243982087066894,"226":0.042365941543581837,"227":0.03306135921113836,"228":-0.07900407116942562,"229":0.03979915614477596,"230":-0.057328131469681784,"231":-0.03729967814753415,"232":-0.030850922968618927,"233":0.09184427488151448,"234":0.05234665967761419,"235":-0.045307581077159424,"236":-0.03590487349088526,"237":-0.062440628582125395,"238":0.0025706223569096458,"239":0.01603110624519868,"240":-0.00016927554356430943,"241":0.00971662630649508,"242":-0.0801541790144179,"243":-0.04290087907578273,"244":0.033734796052547596,"245":-0.018467098492022865,"246":0.008980127215473161,"247":0.06588267103055832,"248":0.007326034927156008,"249":-0.03247505348115773,"250":-0.042796917063474965,"251":-0.004010360118781326,"252":-0.02761102944540253,"253":0.003504213712346188,"254":-0.060824116703717394,"255":0.028728516420019907,"256":-0.06045230986371906,"257":0.030630622813743614,"258":-0.040458544854116985,"259":-0.04005676976868133,"260":0.03331332178243385,"261":0.04735193332945953,"262":-0.021107240568925344,"263":0.06105770347985087,"264":0.12462653634439191,"265":-0.08052593164276492,"266":0.006383535360109623,"267":-0.02845339683217194,"268":0.0627921719244577,"269":-0.02641921212645208,"270":0.022111103136034274,"271":-0.0007666231810836296,"272":-0.021922089471030512,"273":0.03705443721243455,"274":-0.020719588482937496,"275":-0.05197355657625452,"276":0.018346479088073034,"277":-0.01064461456647421,"278":0.04658594161275069,"279":-0.011165174513075258,"280":0.0974678916876775,"281":-0.014441274834246003,"282":-0.053796193583752545,"283":0.015510243259735672,"284":-0.012590355312444259,"285":0.05193387818371169,"286":-0.06250126098938076,"287":0.026330075001887675,"288":0.02959813126190535,"289":0.011405308734213233,"290":-0.007607062627433064,"291":0.0029865302702360556,"292":0.01552496967583582,"293":0.030264505348142647,"294":-0.013034351903587885,"295":-0.01959177197131766,"296":0.00818277859243312,"297":-0.033206047965280705,"298":-0.05662078252041624,"299":-0.00731813145544467,"300":-0.01574218172284833,"301":-0.01110153803209035,"302":0.011287023615844383,"303":-0.017018433390687347,"304":0.03271884004508887,"305":-0.015059500886955533,"306":0.05263387977954751,"307":-0.07098325946374036,"308":-0.015954384614531403,"309":-0.06931552744472523,"310":0.01906287258093075,"311":-0.06530164095602621,"312":0.03398735273227423,"313":-0.022851909386795224,"314":-0.030858275644113208,"315":0.02414204142893587,"316":-0.0243724149901855,"317":-0.003514243907828108,"318":0.04500194394127485,"319":0.05828567008528912,"320":0.03227948187876278,"321":-0.011109380690872027,"322":-0.01903051507098312,"323":0.04992494957393794,"324":-0.0452998803906982,"325":0.055345776452613266,"326":0.029786229222384813,"327":-0.01189504267978231,"328":-0.010433890796919849,"329":-0.011579234804166859,"330":0.032636478520189416,"331":-0.008111982799723307,"332":-0.0488387121265409,"333":-0.017274717701159768,"334":0.011775618989170105,"335":0.01001253513168381,"336":-0.02793111044152359,"337":-0.017696267233729284,"338":-0.0850360356198822,"339":-0.010750314688364257,"340":0.04904078582056569,"341":-0.006890769645506641,"342":0.02763774920691301,"343":-0.0021433145446672322,"344":0.04230735191618781,"345":0.06428842994994137,"346":0.01242606400100157,"347":-0.08412355950324624,"348":0.019256333195685392,"349":-0.0022702641712481065,"350":-0.03690820025356133,"351":0.011324606638072778,"352":0.04203543434704133,"353":-0.046434808744989106,"354":-0.02680260237860866,"355":-0.03412560071172594,"356":0.014865734849628765,"357":-0.0034217911870793017,"358":0.01452807169307945,"359":-0.03433488961623679,"360":0.02070816308103761,"361":-0.025264690407934606,"362":0.034800297055398395,"363":-0.0561931756357069,"364":0.06838864256902645,"365":0.005032962742584448,"366":-0.03840137323820318,"367":0.04653437002682344,"368":0.03883804906494198,"369":-0.017668911110308758,"370":-0.050601070987926086,"371":-0.04252801520528126,"372":-0.025590185520334912,"373":0.005206755872665505,"374":0.033351052071606054,"375":-0.07897893514651909,"376":-0.022908575838057083,"377":0.02908971956210233,"378":0.05440362376837849,"379":-0.009382706157744258,"380":-0.03546380551425105,"381":0.02482347620076622,"382":-0.04246637376856481,"383":0.006821092355952662,"384":-0.035581301133531994,"385":-0.03686340317902181,"386":-0.030267547125234422,"387":0.07547950311759846,"388":-0.03301549929726593,"389":0.003336468909424279,"390":0.011811543331004357,"391":-0.002762005274159757,"392":0.013640473837331796,"393":0.06700854962403437,"394":0.02368465821583058,"395":0.04470065635320877,"396":0.01584523437504999,"397":0.02888756637068311,"398":0.0004685359132409701,"399":0.042056820141829085,"400":0.05427865056113312,"401":0.025794864111894945,"402":-0.016153203833458092,"403":0.012827597308696011,"404":-0.0003719773229689974,"405":-0.03583842141888942,"406":-0.025436184729044124,"407":0.002343827824225682,"408":0.01479946723612582,"409":-0.006687583546398036,"410":0.01276723797713304,"411":-0.07125880202251572,"412":-0.06306231591587691,"413":-0.02862000219080631,"414":-0.0013611943475961687,"415":-0.08968861531926293,"416":0.0370826894562386,"417":-0.019077407777096572,"418":0.08596578121482067,"419":0.013271747299344062,"420":-0.007962569218183635,"421":-0.010720475353590508,"422":0.05674346792805603,"423":0.007342318826499019,"424":-0.08397038318056653,"425":0.05537949786695869,"426":0.03479839103808153,"427":0.02774042398506902,"428":-0.04951498326751193,"429":-0.041175358421346654,"430":0.016104499063072493,"431":0.06721329129736323,"432":0.04775657993528451,"433":-0.0073271174626167385,"434":0.0017241037067242148,"435":-0.008738835135737009,"436":-0.025205836258740157,"437":0.0197385957205985,"438":-0.04078901376429498,"439":0.0006654568017409945,"440":-0.05672669221505832,"441":0.0004253749305740208,"442":0.019118466708958778,"443":0.010203708722101926,"444":0.023275147485396094,"445":-0.03386428890948334,"446":-0.048216993302168484,"447":0.08325184146447472,"448":0.020832597870704163,"449":0.05354860279116885,"450":0.018861367462695403,"451":-0.03644218095875712,"452":-0.02995135570796247,"453":-0.007627090724095766,"454":-0.05367335164069317,"455":-0.001589741977387777,"456":-0.026902988384275607,"457":-0.008016962216402083,"458":-0.07034879148229992,"459":0.0690800160865237,"460":0.01793315347307249,"461":-0.0372981097693725,"462":-0.021372517323772437,"463":-0.07261672758007347,"464":0.007306207561659587,"465":-0.013581220881697581,"466":-0.10473428752181743,"467":-0.020183379102126107,"468":0.08930724206335221,"469":-0.019815576923526996,"470":-0.0034354935111094607,"471":-0.04533815285320517,"472":0.023700323559338016,"473":-0.009799757797465917,"474":0.04314431811413641,"475":-0.012893439169989106,"476":-0.02095505675703805,"477":0.048374167828244635,"478":0.05755691398914486,"479":0.0019658518364888576,"480":-0.022988322369175137,"481":0.004345201670127077,"482":0.014209495909291261,"483":-0.03645403900642182,"484":-0.06547864527567558,"485":-0.05599054232151415,"486":0.00916390295899903,"487":-0.035694168262048534,"488":0.07208895958527749,"489":-0.0032642424691416605,"490":0.017466253352506338,"491":0.006487607932281276,"492":-0.0019933523564650583,"493":-0.07489650021402137,"494":0.026222455761361695,"495":0.014254128740889698,"496":-0.006176342832286793,"497":-0.02599961674277309,"498":-0.02459052845367389,"499":0.015683842302958557,"500":0.018360256667579282,"501":0.016361071556630306,"502":0.050463430990533,"503":0.019892885071496134,"504":-0.024178860326757284,"505":-0.023296448677663728,"506":-0.010070691232996193,"507":-0.011982200847033074,"508":0.0479193438842302,"509":0.03430873964861989,"510":-0.05500097326857458,"511":-0.014194994022810029,"512":0.066371194491787,"513":0.056721314263643414,"514":0.0013821642585734417,"515":0.005321288077372629,"516":-0.013626003682180712,"517":-0.005239255566321464,"518":-0.01851268250778792,"519":0.0012093737272093087,"520":0.04475878993055614,"521":-0.027328838215186464,"522":0.0036848076294846038,"523":0.005261450032941058,"524":0.04446235612804986,"525":-0.0072499755348349685,"526":0.011976839229653159,"527":-0.04378800590959168,"528":0.0012661532476261823,"529":-0.01803891307205696,"530":0.03782538155989528,"531":0.03670952218679378,"532":-0.050224463940551765,"533":0.05926074460120072,"534":-0.005513660030651256,"535":0.03286583159429764,"536":-0.032303367865317546,"537":0.04972673844810162,"538":0.010503544247917699,"539":-0.021458923776152793,"540":0.08348097414828498,"541":-0.06391317794341524,"542":0.032638257962935825,"543":0.047723919087288146,"544":-0.012777608031127272,"545":0.012871357382845255,"546":0.01799564173540211,"547":-0.0037935717973170543,"548":0.04497327445032039,"549":-0.0013652426201494912,"550":-0.03430835693518685,"551":-0.02550095599554511,"552":-0.0032259047557409884,"553":-0.028583610379817263,"554":-0.10766824929814588,"555":0.020471570530104843,"556":-0.002692757057768601,"557":0.034723489340509686,"558":-0.0090816851003305,"559":-0.001553894054836787,"560":0.047560265128356476,"561":-0.021014666808477887,"562":-0.011091622837847889,"563":0.07467163831188722,"564":0.00923497681408322,"565":0.01293805506354599,"566":-0.01664704373713139,"567":0.002246364283696765,"568":0.043676976400695636,"569":-0.023897185636964788,"570":0.04428196389461537,"571":-0.012193117754575843,"572":0.0017118375898490035,"573":0.05343743343854353,"574":-0.07207211242279067,"575":0.034109469446947684,"576":-0.004161352167013167,"577":0.014107007462744655,"578":0.015504621502210485,"579":0.09181412205742376,"580":-0.00812836397984828,"581":-0.03816677915571824,"582":-0.013232133848482965,"583":-0.0958534980739249,"584":0.06290385211230991,"585":-0.021012597375696898,"586":-0.05942537015222395,"587":0.07559501851335027,"588":-0.01731689745337376,"589":0.03208535527572981,"590":0.009907644301452972,"591":-0.04455296042261555,"592":0.024100943189896428,"593":-0.032391872848866764,"594":-0.028052452660914072,"595":0.031908026910254864,"596":0.020213067766033058,"597":0.0000550717233727509,"598":0.000870325168212918,"599":0.04686276997014208,"600":-0.019704535943190896,"601":-0.06091541799026274,"602":0.004468318912381188,"603":-0.040605767874816866,"604":-0.012433699396439228,"605":0.05923196059240731,"606":-0.034507183653995015,"607":-0.024774106445668954,"608":0.0491478300765415,"609":-0.025601800018754964,"610":-0.0032693081781643104,"611":-0.004112296669139889,"612":-0.026320139240853257,"613":-0.004829179920603279,"614":0.01845109470292107,"615":0.05342514729809864,"616":-0.01575902660103038,"617":0.007429083068402949,"618":-0.010834994565159644,"619":0.021012100062506336,"620":0.07750496446544249,"621":0.013474635363885773,"622":0.01297489688904087,"623":0.09643338665025285,"624":-0.011421610609233215,"625":-0.075587721001312,"626":0.05392268809253551,"627":0.07911917215412477,"628":-0.005998913858786963,"629":0.04822171642501164,"630":-0.018399662377161584,"631":-0.012372846097453073,"632":0.024387701738861327,"633":-0.009278599689578044,"634":0.003163611384625726,"635":-0.03646838711650341,"636":0.04008285941165494,"637":-0.028200885172306633,"638":0.01414196769876596,"639":-0.015185846475330387,"640":0.01473350962335673,"641":0.07593327318553152,"642":-0.00892833964528673,"643":0.006155410492832099,"644":0.0003256792255381884,"645":-0.020553586637636175,"646":0.018221607041871226,"647":0.05079429554954237,"648":-0.003914087873853626,"649":0.053998020350641406,"650":0.06609066067578351,"651":-0.03262270773436046,"652":0.003973730480596034,"653":-0.0034444129043768807,"654":-0.014723970083444402,"655":0.0334513727949665,"656":0.006332256121525096,"657":0.017542021252513095,"658":0.0385254896986613,"659":0.025837577972267912,"660":0.05170298870835886,"661":0.02725813433781524,"662":0.026959208333593082}},{"sx":1,"sy":1,"depth":663,"w":{"0":0.030502066619264245,"1":-0.03639615816530737,"2":0.008923986959449444,"3":0.03903573875597058,"4":0.02989710489915277,"5":0.11042613218364103,"6":-0.05893471407606482,"7":-0.00583109855306384,"8":0.012437671414427925,"9":0.03155839087827933,"10":0.02856872326429527,"11":0.016181699429751742,"12":-0.04212403907725237,"13":0.03652683453601173,"14":0.014129985346415056,"15":-0.006560012222407422,"16":0.042340363735699285,"17":0.03456267166896911,"18":0.0464000215566235,"19":-0.12560427123574652,"20":0.03471798820436859,"21":-0.007904550857671496,"22":-0.00203260258902949,"23":-0.023313549964115755,"24":0.014440478962302699,"25":0.018729844981318033,"26":0.004347202833603952,"27":-0.022081375107651763,"28":-0.028631959485012546,"29":0.0360425794294334,"30":-0.03909452730533137,"31":-0.06602977630005152,"32":0.05502570828526424,"33":-0.04520193771881686,"34":-0.08458842558191035,"35":0.07708692153043187,"36":-0.004535036534746884,"37":0.04115983273862266,"38":-0.002066004253212068,"39":0.005629927747206453,"40":0.05649663198192194,"41":-0.03172473547305593,"42":0.03693481221285646,"43":-0.03327867336730105,"44":0.0013115132209542966,"45":0.001148616901566032,"46":-0.02150363299276798,"47":0.027085806687158685,"48":0.006816284971487546,"49":0.039703529537661084,"50":0.004201708850309904,"51":0.06554928078594482,"52":0.03762074821950539,"53":-0.0020716361624763284,"54":-0.010378251143594202,"55":-0.04203905728101224,"56":-0.05311010226037542,"57":-0.013849106191968174,"58":-0.015143605194886476,"59":0.04172593212392419,"60":-0.038401756102374195,"61":0.040199649858574014,"62":-0.05162045560649417,"63":0.015207371823155354,"64":-0.022628954872470075,"65":0.053948205316353075,"66":0.007764342177213183,"67":0.001831557960814487,"68":-0.025868554310585233,"69":0.04639176296742395,"70":-0.026534520042346025,"71":0.02507882119435061,"72":-0.014331471723886914,"73":0.09596443844399416,"74":-0.013528601511712432,"75":0.009082698690455868,"76":-0.009880522913613205,"77":-0.045026921424083925,"78":0.031319122354177484,"79":-0.003983779706259937,"80":-0.002090246506880722,"81":0.015308899213559431,"82":0.028649632331787658,"83":-0.02653206829096852,"84":0.039094481902748744,"85":-0.04328834078524414,"86":-0.02508562720302181,"87":0.03584975903468379,"88":-0.026544573738880573,"89":-0.05333738044457132,"90":-0.017801145035615036,"91":-0.0007802074404490288,"92":-0.038486248504188636,"93":-0.05929300181978957,"94":-0.0385869483234131,"95":0.05037623351230189,"96":0.014154627311558084,"97":0.03850402647696378,"98":0.034750498090445274,"99":-0.020937009599928544,"100":0.0009166506445821865,"101":-0.007259931875146639,"102":0.06437933721603309,"103":-0.015472881151913755,"104":-0.014910931537899453,"105":0.06959891885730471,"106":-0.001330845806740999,"107":-0.028683266945311987,"108":0.022020927184472766,"109":0.07002552543841793,"110":-0.04325235669603764,"111":0.07486154810579372,"112":-0.0071383415106353425,"113":0.0008805019326747357,"114":0.006282407922661219,"115":0.05412958931816977,"116":-0.002890514678238329,"117":-0.03810800673330525,"118":0.023529872617919344,"119":0.04791962368682053,"120":0.019590445421182198,"121":-0.05050648260983766,"122":-0.012482804107375275,"123":-0.03838769789805376,"124":-0.020154216812754658,"125":-0.009003286553918485,"126":-0.01852656099881706,"127":0.0331573666510765,"128":-0.03384274765036297,"129":-0.02923829102920655,"130":0.013203789893654748,"131":-0.037483839400449664,"132":-0.005668882753587984,"133":0.0008152193236118728,"134":0.042983980065729774,"135":0.021883897802335614,"136":0.06170916276846881,"137":0.04424273054761568,"138":-0.0025676030919033004,"139":-0.0016666548310879563,"140":-0.07464276392576694,"141":0.08542171169521587,"142":0.0639807307546151,"143":-0.026468207147028463,"144":-0.031484703244078274,"145":0.05613079626323631,"146":-0.012610181687211468,"147":0.06028102738929266,"148":-0.024788316027713943,"149":-0.0019025834322444017,"150":0.04003220231421898,"151":-0.0076054344498706515,"152":-0.04446424006895361,"153":-0.0058927058268840584,"154":-0.018199309144698826,"155":0.04519774431959222,"156":0.025415457006227757,"157":-0.01756529938528636,"158":0.07183050127321977,"159":0.021865886611947976,"160":0.007052081373129083,"161":-0.012615406372097064,"162":0.020499221523348512,"163":0.05630057735689123,"164":-0.047149864627284536,"165":0.02305095436796408,"166":0.07420903171717756,"167":-0.015256113959067764,"168":-0.0021931676042860455,"169":-0.010838838658954039,"170":-0.0011938126481802886,"171":-0.008809646151387721,"172":0.005555510388423399,"173":-0.027846773035928737,"174":-0.017885437455942354,"175":0.06239371941376408,"176":0.06906843777698327,"177":0.00019115200232734824,"178":-0.015768397486703428,"179":0.022571328536658226,"180":0.024326968732626235,"181":0.015019489602784607,"182":0.0531221063674931,"183":0.06547552732354982,"184":-0.00403973339691872,"185":0.023540186554019137,"186":0.026031167250407494,"187":-0.012784441614354792,"188":0.014846438228796364,"189":-0.01074632493520436,"190":0.042078050810186944,"191":-0.07356763452943518,"192":0.031819145183346415,"193":0.001000348730431856,"194":-0.02656286943131452,"195":0.014206684574634235,"196":-0.0840326516613338,"197":0.014320334922516961,"198":-0.004528181921712613,"199":0.034195221192647916,"200":0.002620133769839619,"201":-0.0031639584434548238,"202":0.0044362896723557765,"203":-0.0629341311075695,"204":0.05330533756278136,"205":0.048679848468165345,"206":-0.0027795218410777917,"207":-0.048674487935778034,"208":-0.028052875335255693,"209":-0.07227891307117043,"210":0.08218190230777582,"211":0.0014071822441211867,"212":0.005439038348336161,"213":0.042020756083160506,"214":-0.04385867285926088,"215":-0.07749059618595082,"216":0.022179341465283345,"217":0.015207658904136447,"218":-0.02839087829505474,"219":-0.016819344199677965,"220":0.10136702824508406,"221":-0.04472132444112744,"222":0.03782948026575026,"223":0.03680114613871685,"224":0.05406501613528006,"225":0.022592283370474052,"226":0.012187749373681523,"227":-0.04893918893337217,"228":0.005090972450713262,"229":0.07326032191756536,"230":-0.05280712640886312,"231":-0.05157511901201794,"232":-0.0839936951432919,"233":0.056964552658979456,"234":0.06196998571389226,"235":0.02237290980147345,"236":-0.0527600238262176,"237":-0.06409274278299094,"238":0.010914641826940482,"239":-0.009612970212180116,"240":-0.0191127290288633,"241":0.011966646341660359,"242":0.08195694955778693,"243":-0.000453148541647195,"244":0.01565915741654491,"245":-0.007047529372180792,"246":-0.0445576189035002,"247":0.007878068478538289,"248":-0.05274867177609265,"249":0.03644384742883786,"250":-0.03988659885326668,"251":-0.027542216881810196,"252":0.0002939914997288467,"253":-0.01949287671532546,"254":0.004343420846543034,"255":-0.013606695134057966,"256":0.026553304578398707,"257":0.011129188485319618,"258":0.017248226464950677,"259":0.02265801536068317,"260":0.0523964473708648,"261":0.0016362954354616854,"262":0.02395481369799463,"263":0.024671915085450597,"264":0.009457535756042459,"265":-0.04705137807942078,"266":-0.05933470970005054,"267":0.013155724917912889,"268":-0.030677632350168838,"269":0.04604502995844655,"270":0.09251000302603928,"271":0.009507151539458003,"272":0.01039111182677137,"273":-0.042472591691263474,"274":-0.08782330124680696,"275":0.0008913085054472398,"276":0.029647533462038782,"277":0.01105505909441369,"278":0.024650100921334326,"279":0.013538454580075934,"280":0.01723770951608639,"281":-0.009409264403926044,"282":-0.009682492796944123,"283":-0.03251449252502085,"284":-0.03389108998040839,"285":0.01203757526795343,"286":-0.05640309168620319,"287":-0.0011801466828919535,"288":-0.08412948876845185,"289":-0.02431773339889104,"290":-0.07242795628901585,"291":0.009234065213116895,"292":0.005833188428479148,"293":-0.04317994824399851,"294":-0.03889018698322928,"295":0.032707554997419494,"296":-0.004916490052194586,"297":-0.06274081224912886,"298":-0.0016897819121271583,"299":-0.014480936672458396,"300":0.07075066826430844,"301":-0.04947318280971682,"302":-0.020029741477210233,"303":-0.0449214611344431,"304":0.012673955908356006,"305":0.032545879062609875,"306":-0.0018723950690699165,"307":0.0729277851474241,"308":0.02837755180235995,"309":0.027613331174413974,"310":-0.044466724413041024,"311":0.021440559220812783,"312":-0.03244024748488744,"313":0.012761757700665965,"314":0.04131619297625037,"315":0.014421864296184526,"316":0.030018768772582038,"317":0.015429710105332724,"318":-0.01220237629894223,"319":0.005550234976946185,"320":0.004435791934195537,"321":0.0232900321799189,"322":0.05713677025506454,"323":-0.019960177188146355,"324":-0.048730364482597405,"325":-0.03927086446306372,"326":0.004529011725076378,"327":0.11155668317391597,"328":0.04127505560752237,"329":-0.0011337419658994908,"330":-0.08370608657710382,"331":0.09493717314237764,"332":-0.012770198315723822,"333":0.07629526102903474,"334":0.07981060740227787,